<?xml version="1.0"?>
<opencv_storage>
<cascade>
  <stageType>BOOST</stageType>
  <featureType>HAAR</featureType>
  <height>12</height>
  <width>12</width>
  <stageParams>
    <boostType>GAB</boostType>
    <minHitRate>9.9500000476837158e-01</minHitRate>
    <maxFalseAlarm>5.0000000000000000e-01</maxFalseAlarm>
    <weightTrimRate>9.4999998807907104e-01</weightTrimRate>
    <maxDepth>1</maxDepth>
    <maxWeakCount>100</maxWeakCount></stageParams>
  <featureParams>
    <maxCatCount>0</maxCatCount>
    <featSize>1</featSize>
    <mode>BASIC</mode></featureParams>
  <stageNum>25</stageNum>
  <stages>
    <!-- stage 0 -->
    <_>
      <maxWeakCount>1</maxWeakCount>
      <stageThreshold>9.6639209985733032e-01</stageThreshold>
      <weakClassifiers>
        <_>
          <internalNodes>
            0 -1 55 1.0104046761989594e-01</internalNodes>
          <leafValues>
            -7.9963570833206177e-01 9.6639209985733032e-01</leafValues></_></weakClassifiers></_>
    <!-- stage 1 -->
    <_>
      <maxWeakCount>2</maxWeakCount>
      <stageThreshold>5.0554323196411133e-01</stageThreshold>
      <weakClassifiers>
        <_>
          <internalNodes>
            0 -1 56 1.1214184761047363e-01</internalNodes>
          <leafValues>
            -3.8041543960571289e-01 9.7744458913803101e-01</leafValues></_>
        <_>
          <internalNodes>
            0 -1 18 3.7480539083480835e-01</internalNodes>
          <leafValues>
            -4.7190141677856445e-01 9.2847788333892822e-01</leafValues></_></weakClassifiers></_>
    <!-- stage 2 -->
    <_>
      <maxWeakCount>3</maxWeakCount>
      <stageThreshold>-4.1491039097309113e-02</stageThreshold>
      <weakClassifiers>
        <_>
          <internalNodes>
            0 -1 8 1.6859784722328186e-01</internalNodes>
          <leafValues>
            -5.9590792655944824e-01 9.6288740634918213e-01</leafValues></_>
        <_>
          <internalNodes>
            0 -1 68 3.2069289684295654e-01</internalNodes>
          <leafValues>
            -2.5678604841232300e-01 9.5903962850570679e-01</leafValues></_>
        <_>
          <internalNodes>
            0 -1 17 1.1561913788318634e-01</internalNodes>
          <leafValues>
            -7.7351993322372437e-01 8.1120294332504272e-01</leafValues></_></weakClassifiers></_>
    <!-- stage 3 -->
    <_>
      <maxWeakCount>3</maxWeakCount>
      <stageThreshold>-2.0549426972866058e-01</stageThreshold>
      <weakClassifiers>
        <_>
          <internalNodes>
            0 -1 8 1.1945421248674393e-01</internalNodes>
          <leafValues>
            -7.2556054592132568e-01 9.6466571092605591e-01</leafValues></_>
        <_>
          <internalNodes>
            0 -1 93 -8.7956804782152176e-03</internalNodes>
          <leafValues>
            8.7037223577499390e-01 -7.9562228918075562e-01</leafValues></_>
        <_>
          <internalNodes>
            0 -1 65 -4.8127695918083191e-02</internalNodes>
          <leafValues>
            9.3207633495330811e-01 -3.7453767657279968e-01</leafValues></_></weakClassifiers></_>
    <!-- stage 4 -->
    <_>
      <maxWeakCount>4</maxWeakCount>
      <stageThreshold>5.0882583856582642e-01</stageThreshold>
      <weakClassifiers>
        <_>
          <internalNodes>
            0 -1 93 -7.2210729122161865e-03</internalNodes>
          <leafValues>
            9.4194138050079346e-01 -5.0807452201843262e-01</leafValues></_>
        <_>
          <internalNodes>
            0 -1 60 1.2483272701501846e-01</internalNodes>
          <leafValues>
            -4.1394397616386414e-01 8.6034899950027466e-01</leafValues></_>
        <_>
          <internalNodes>
            0 -1 88 -6.6260718740522861e-03</internalNodes>
          <leafValues>
            7.8989326953887939e-01 -5.4813939332962036e-01</leafValues></_>
        <_>
          <internalNodes>
            0 -1 12 -5.6882435455918312e-03</internalNodes>
          <leafValues>
            6.4095109701156616e-01 -5.5172669887542725e-01</leafValues></_></weakClassifiers></_>
    <!-- stage 5 -->
    <_>
      <maxWeakCount>4</maxWeakCount>
      <stageThreshold>6.7385637760162354e-01</stageThreshold>
      <weakClassifiers>
        <_>
          <internalNodes>
            0 -1 3 1.8817242234945297e-02</internalNodes>
          <leafValues>
            9.4075608253479004e-01 -8.1366461515426636e-01</leafValues></_>
        <_>
          <internalNodes>
            0 -1 13 1.9509479403495789e-01</internalNodes>
          <leafValues>
            -4.3976941704750061e-01 8.4545403718948364e-01</leafValues></_>
        <_>
          <internalNodes>
            0 -1 78 -3.9141494780778885e-03</internalNodes>
          <leafValues>
            7.2579789161682129e-01 -6.1691927909851074e-01</leafValues></_>
        <_>
          <internalNodes>
            0 -1 77 8.0886363983154297e-02</internalNodes>
          <leafValues>
            -4.5175653696060181e-01 7.8978902101516724e-01</leafValues></_></weakClassifiers></_>
    <!-- stage 6 -->
    <_>
      <maxWeakCount>4</maxWeakCount>
      <stageThreshold>4.5322021842002869e-01</stageThreshold>
      <weakClassifiers>
        <_>
          <internalNodes>
            0 -1 64 -6.9148570299148560e-02</internalNodes>
          <leafValues>
            -8.9198035001754761e-01 9.4043159484863281e-01</leafValues></_>
        <_>
          <internalNodes>
            0 -1 52 4.8825275897979736e-01</internalNodes>
          <leafValues>
            -3.5712274909019470e-01 8.8313841819763184e-01</leafValues></_>
        <_>
          <internalNodes>
            0 -1 14 4.0479892492294312e-01</internalNodes>
          <leafValues>
            -6.8027693033218384e-01 6.9119793176651001e-01</leafValues></_>
        <_>
          <internalNodes>
            0 -1 109 -8.8213011622428894e-05</internalNodes>
          <leafValues>
            -6.2873166799545288e-01 5.5018830299377441e-01</leafValues></_></weakClassifiers></_>
    <!-- stage 7 -->
    <_>
      <maxWeakCount>4</maxWeakCount>
      <stageThreshold>4.7449818253517151e-01</stageThreshold>
      <weakClassifiers>
        <_>
          <internalNodes>
            0 -1 66 -5.1261052489280701e-02</internalNodes>
          <leafValues>
            9.6920424699783325e-01 -4.4591766595840454e-01</leafValues></_>
        <_>
          <internalNodes>
            0 -1 59 1.7146114259958267e-04</internalNodes>
          <leafValues>
            -7.7825909852981567e-01 8.6522132158279419e-01</leafValues></_>
        <_>
          <internalNodes>
            0 -1 91 4.0936090052127838e-02</internalNodes>
          <leafValues>
            -5.9257191419601440e-01 8.1365853548049927e-01</leafValues></_>
        <_>
          <internalNodes>
            0 -1 0 8.1555481301620603e-05</internalNodes>
          <leafValues>
            6.4776641130447388e-01 -6.5346127748489380e-01</leafValues></_></weakClassifiers></_>
    <!-- stage 8 -->
    <_>
      <maxWeakCount>4</maxWeakCount>
      <stageThreshold>6.0138052701950073e-01</stageThreshold>
      <weakClassifiers>
        <_>
          <internalNodes>
            0 -1 25 1.8110643327236176e-01</internalNodes>
          <leafValues>
            6.2336303293704987e-02 9.5920157432556152e-01</leafValues></_>
        <_>
          <internalNodes>
            0 -1 92 5.3852956742048264e-02</internalNodes>
          <leafValues>
            -3.8849887251853943e-01 8.2075160741806030e-01</leafValues></_>
        <_>
          <internalNodes>
            0 -1 48 1.5660414099693298e-01</internalNodes>
          <leafValues>
            -4.4771477580070496e-01 7.2481465339660645e-01</leafValues></_>
        <_>
          <internalNodes>
            0 -1 39 4.2089972645044327e-02</internalNodes>
          <leafValues>
            -6.9413679838180542e-01 4.9925109744071960e-01</leafValues></_></weakClassifiers></_>
    <!-- stage 9 -->
    <_>
      <maxWeakCount>4</maxWeakCount>
      <stageThreshold>8.2958459854125977e-01</stageThreshold>
      <weakClassifiers>
        <_>
          <internalNodes>
            0 -1 16 1.7956207692623138e-01</internalNodes>
          <leafValues>
            9.2592352628707886e-01 -8.0156660079956055e-01</leafValues></_>
        <_>
          <internalNodes>
            0 -1 2 -1.5098797157406807e-02</internalNodes>
          <leafValues>
            9.1831779479980469e-01 -9.0645097196102142e-02</leafValues></_>
        <_>
          <internalNodes>
            0 -1 73 -6.4514637924730778e-03</internalNodes>
          <leafValues>
            6.9539803266525269e-01 -4.5148465037345886e-01</leafValues></_>
        <_>
          <internalNodes>
            0 -1 104 -5.3546442650258541e-03</internalNodes>
          <leafValues>
            5.2145427465438843e-01 -5.6317210197448730e-01</leafValues></_></weakClassifiers></_>
    <!-- stage 10 -->
    <_>
      <maxWeakCount>4</maxWeakCount>
      <stageThreshold>2.0286655426025391e-01</stageThreshold>
      <weakClassifiers>
        <_>
          <internalNodes>
            0 -1 99 -1.7570581287145615e-02</internalNodes>
          <leafValues>
            -8.4697985649108887e-01 9.4731038808822632e-01</leafValues></_>
        <_>
          <internalNodes>
            0 -1 33 1.0009554214775562e-02</internalNodes>
          <leafValues>
            8.3052057027816772e-01 -4.8131087422370911e-01</leafValues></_>
        <_>
          <internalNodes>
            0 -1 49 -1.2803738005459309e-02</internalNodes>
          <leafValues>
            8.6853885650634766e-01 -3.6437055468559265e-01</leafValues></_>
        <_>
          <internalNodes>
            0 -1 74 1.2056402862071991e-02</internalNodes>
          <leafValues>
            -3.8562637567520142e-01 6.6261839866638184e-01</leafValues></_></weakClassifiers></_>
    <!-- stage 11 -->
    <_>
      <maxWeakCount>4</maxWeakCount>
      <stageThreshold>7.3629230260848999e-01</stageThreshold>
      <weakClassifiers>
        <_>
          <internalNodes>
            0 -1 27 7.0809848606586456e-02</internalNodes>
          <leafValues>
            9.3338710069656372e-01 -6.0824739933013916e-01</leafValues></_>
        <_>
          <internalNodes>
            0 -1 53 3.9809584617614746e-02</internalNodes>
          <leafValues>
            -3.2319965958595276e-01 8.2681244611740112e-01</leafValues></_>
        <_>
          <internalNodes>
            0 -1 98 -2.0200717262923717e-03</internalNodes>
          <leafValues>
            6.3726603984832764e-01 -6.0988128185272217e-01</leafValues></_>
        <_>
          <internalNodes>
            0 -1 110 -3.6437332630157471e-02</internalNodes>
          <leafValues>
            7.6714646816253662e-01 -4.1402599215507507e-01</leafValues></_></weakClassifiers></_>
    <!-- stage 12 -->
    <_>
      <maxWeakCount>4</maxWeakCount>
      <stageThreshold>6.1784380674362183e-01</stageThreshold>
      <weakClassifiers>
        <_>
          <internalNodes>
            0 -1 40 1.9446110725402832e-01</internalNodes>
          <leafValues>
            -2.3428571224212646e-01 9.4416224956512451e-01</leafValues></_>
        <_>
          <internalNodes>
            0 -1 15 -7.1310892701148987e-02</internalNodes>
          <leafValues>
            -5.9516769647598267e-01 7.7063095569610596e-01</leafValues></_>
        <_>
          <internalNodes>
            0 -1 77 9.3856543302536011e-02</internalNodes>
          <leafValues>
            -3.4287595748901367e-01 8.1389337778091431e-01</leafValues></_>
        <_>
          <internalNodes>
            0 -1 54 4.8994421958923340e-02</internalNodes>
          <leafValues>
            -4.5593795180320740e-01 6.1172515153884888e-01</leafValues></_></weakClassifiers></_>
    <!-- stage 13 -->
    <_>
      <maxWeakCount>6</maxWeakCount>
      <stageThreshold>1.3622231781482697e-01</stageThreshold>
      <weakClassifiers>
        <_>
          <internalNodes>
            0 -1 7 -1.7070535570383072e-02</internalNodes>
          <leafValues>
            -7.2188138961791992e-01 9.3056184053421021e-01</leafValues></_>
        <_>
          <internalNodes>
            0 -1 76 -1.0881581902503967e-01</internalNodes>
          <leafValues>
            7.8215253353118896e-01 -4.8733916878700256e-01</leafValues></_>
        <_>
          <internalNodes>
            0 -1 63 -1.7129421234130859e-02</internalNodes>
          <leafValues>
            6.9228768348693848e-01 -3.9860922098159790e-01</leafValues></_>
        <_>
          <internalNodes>
            0 -1 101 -7.8079551458358765e-03</internalNodes>
          <leafValues>
            4.9627307057380676e-01 -5.5419141054153442e-01</leafValues></_>
        <_>
          <internalNodes>
            0 -1 50 -6.3697551377117634e-03</internalNodes>
          <leafValues>
            4.2216616868972778e-01 -6.1091738939285278e-01</leafValues></_>
        <_>
          <internalNodes>
            0 -1 94 -9.0787257067859173e-04</internalNodes>
          <leafValues>
            2.1939611434936523e-01 -8.2683038711547852e-01</leafValues></_></weakClassifiers></_>
    <!-- stage 14 -->
    <_>
      <maxWeakCount>5</maxWeakCount>
      <stageThreshold>6.7625856399536133e-01</stageThreshold>
      <weakClassifiers>
        <_>
          <internalNodes>
            0 -1 9 2.7230799198150635e-02</internalNodes>
          <leafValues>
            9.2394995689392090e-01 -6.6578251123428345e-01</leafValues></_>
        <_>
          <internalNodes>
            0 -1 11 2.6736544445157051e-02</internalNodes>
          <leafValues>
            -1.5811281278729439e-02 8.8735234737396240e-01</leafValues></_>
        <_>
          <internalNodes>
            0 -1 58 8.8546648621559143e-03</internalNodes>
          <leafValues>
            -3.6565026640892029e-01 6.7746090888977051e-01</leafValues></_>
        <_>
          <internalNodes>
            0 -1 97 -1.0331828147172928e-02</internalNodes>
          <leafValues>
            4.9981021881103516e-01 -5.0325715541839600e-01</leafValues></_>
        <_>
          <internalNodes>
            0 -1 44 -8.9078899472951889e-03</internalNodes>
          <leafValues>
            8.6354756355285645e-01 -2.6613634824752808e-01</leafValues></_></weakClassifiers></_>
    <!-- stage 15 -->
    <_>
      <maxWeakCount>7</maxWeakCount>
      <stageThreshold>1.7516994476318359e-01</stageThreshold>
      <weakClassifiers>
        <_>
          <internalNodes>
            0 -1 21 -5.8052763342857361e-02</internalNodes>
          <leafValues>
            -3.6712750792503357e-01 9.3175053596496582e-01</leafValues></_>
        <_>
          <internalNodes>
            0 -1 22 1.3354915380477905e-01</internalNodes>
          <leafValues>
            7.4088579416275024e-01 -6.4660394191741943e-01</leafValues></_>
        <_>
          <internalNodes>
            0 -1 72 1.0433701798319817e-02</internalNodes>
          <leafValues>
            -3.8760438561439514e-01 6.5995526313781738e-01</leafValues></_>
        <_>
          <internalNodes>
            0 -1 42 5.5603485088795424e-04</internalNodes>
          <leafValues>
            -7.5715100765228271e-01 3.2801014184951782e-01</leafValues></_>
        <_>
          <internalNodes>
            0 -1 45 -6.5150519367307425e-04</internalNodes>
          <leafValues>
            -5.3455144166946411e-01 3.9844983816146851e-01</leafValues></_>
        <_>
          <internalNodes>
            0 -1 43 -3.0710045248270035e-02</internalNodes>
          <leafValues>
            8.6208301782608032e-01 -2.5162363052368164e-01</leafValues></_>
        <_>
          <internalNodes>
            0 -1 102 1.8595529720187187e-02</internalNodes>
          <leafValues>
            -4.6652573347091675e-01 4.8927253484725952e-01</leafValues></_></weakClassifiers></_>
    <!-- stage 16 -->
    <_>
      <maxWeakCount>3</maxWeakCount>
      <stageThreshold>1.2509878873825073e+00</stageThreshold>
      <weakClassifiers>
        <_>
          <internalNodes>
            0 -1 100 8.2921467721462250e-02</internalNodes>
          <leafValues>
            9.4070863723754883e-01 -8.3622044324874878e-01</leafValues></_>
        <_>
          <internalNodes>
            0 -1 85 -1.8349944730289280e-04</internalNodes>
          <leafValues>
            7.8135597705841064e-01 -4.1653007268905640e-01</leafValues></_>
        <_>
          <internalNodes>
            0 -1 46 -1.1309258639812469e-02</internalNodes>
          <leafValues>
            7.2680926322937012e-01 -3.8072836399078369e-01</leafValues></_></weakClassifiers></_>
    <!-- stage 17 -->
    <_>
      <maxWeakCount>5</maxWeakCount>
      <stageThreshold>7.9120928049087524e-01</stageThreshold>
      <weakClassifiers>
        <_>
          <internalNodes>
            0 -1 23 -8.8878301903605461e-03</internalNodes>
          <leafValues>
            -3.8590604066848755e-01 9.2980527877807617e-01</leafValues></_>
        <_>
          <internalNodes>
            0 -1 24 8.6073376238346100e-02</internalNodes>
          <leafValues>
            -5.2597284317016602e-01 7.2900944948196411e-01</leafValues></_>
        <_>
          <internalNodes>
            0 -1 10 4.7660008072853088e-02</internalNodes>
          <leafValues>
            -3.8446134328842163e-01 6.8797588348388672e-01</leafValues></_>
        <_>
          <internalNodes>
            0 -1 83 4.2854823172092438e-02</internalNodes>
          <leafValues>
            -5.8834385871887207e-01 4.0627110004425049e-01</leafValues></_>
        <_>
          <internalNodes>
            0 -1 81 3.6274208105169237e-04</internalNodes>
          <leafValues>
            4.2629617452621460e-01 -5.0664108991622925e-01</leafValues></_></weakClassifiers></_>
    <!-- stage 18 -->
    <_>
      <maxWeakCount>5</maxWeakCount>
      <stageThreshold>8.1475734710693359e-01</stageThreshold>
      <weakClassifiers>
        <_>
          <internalNodes>
            0 -1 1 -3.5486795008182526e-02</internalNodes>
          <leafValues>
            -8.4070795774459839e-01 9.2391443252563477e-01</leafValues></_>
        <_>
          <internalNodes>
            0 -1 75 -1.7179492115974426e-01</internalNodes>
          <leafValues>
            7.1814697980880737e-01 -4.9288457632064819e-01</leafValues></_>
        <_>
          <internalNodes>
            0 -1 80 1.4323255047202110e-02</internalNodes>
          <leafValues>
            -4.5273754000663757e-01 6.2832665443420410e-01</leafValues></_>
        <_>
          <internalNodes>
            0 -1 29 3.3738321508280933e-04</internalNodes>
          <leafValues>
            3.4968185424804688e-01 -5.9378045797348022e-01</leafValues></_>
        <_>
          <internalNodes>
            0 -1 103 -8.2375425845384598e-03</internalNodes>
          <leafValues>
            4.8678317666053772e-01 -4.7478654980659485e-01</leafValues></_></weakClassifiers></_>
    <!-- stage 19 -->
    <_>
      <maxWeakCount>7</maxWeakCount>
      <stageThreshold>1.2915922701358795e-01</stageThreshold>
      <weakClassifiers>
        <_>
          <internalNodes>
            0 -1 6 -1.9105519354343414e-01</internalNodes>
          <leafValues>
            -1.6481068730354309e-01 9.3628746271133423e-01</leafValues></_>
        <_>
          <internalNodes>
            0 -1 107 2.7564063668251038e-02</internalNodes>
          <leafValues>
            7.4654042720794678e-01 -7.3967266082763672e-01</leafValues></_>
        <_>
          <internalNodes>
            0 -1 62 1.8306780839338899e-04</internalNodes>
          <leafValues>
            -7.2889959812164307e-01 4.4104424118995667e-01</leafValues></_>
        <_>
          <internalNodes>
            0 -1 61 5.8495789766311646e-02</internalNodes>
          <leafValues>
            -4.2529630661010742e-01 6.4463967084884644e-01</leafValues></_>
        <_>
          <internalNodes>
            0 -1 95 7.2684839367866516e-02</internalNodes>
          <leafValues>
            -2.7135080099105835e-01 7.3970204591751099e-01</leafValues></_>
        <_>
          <internalNodes>
            0 -1 71 1.8353015184402466e-04</internalNodes>
          <leafValues>
            -6.2495541572570801e-01 3.7908574938774109e-01</leafValues></_>
        <_>
          <internalNodes>
            0 -1 31 1.8842096324078739e-04</internalNodes>
          <leafValues>
            -5.0720769166946411e-01 4.4472202658653259e-01</leafValues></_></weakClassifiers></_>
    <!-- stage 20 -->
    <_>
      <maxWeakCount>8</maxWeakCount>
      <stageThreshold>5.8129262179136276e-02</stageThreshold>
      <weakClassifiers>
        <_>
          <internalNodes>
            0 -1 37 -5.4335922002792358e-02</internalNodes>
          <leafValues>
            -4.9756097793579102e-01 9.2342007160186768e-01</leafValues></_>
        <_>
          <internalNodes>
            0 -1 57 -3.1633675098419189e-02</internalNodes>
          <leafValues>
            7.2820156812667847e-01 -3.9024460315704346e-01</leafValues></_>
        <_>
          <internalNodes>
            0 -1 38 4.0060341358184814e-02</internalNodes>
          <leafValues>
            -4.3209335207939148e-01 5.2945905923843384e-01</leafValues></_>
        <_>
          <internalNodes>
            0 -1 89 8.0786168575286865e-02</internalNodes>
          <leafValues>
            -5.7620686292648315e-01 4.3183562159538269e-01</leafValues></_>
        <_>
          <internalNodes>
            0 -1 105 -8.0736848758533597e-04</internalNodes>
          <leafValues>
            -6.9641453027725220e-01 2.6751837134361267e-01</leafValues></_>
        <_>
          <internalNodes>
            0 -1 36 -2.5007456541061401e-02</internalNodes>
          <leafValues>
            4.7901064157485962e-01 -4.1769999265670776e-01</leafValues></_>
        <_>
          <internalNodes>
            0 -1 67 1.8918051500804722e-04</internalNodes>
          <leafValues>
            -5.6596696376800537e-01 3.1309565901756287e-01</leafValues></_>
        <_>
          <internalNodes>
            0 -1 34 -1.1474267579615116e-02</internalNodes>
          <leafValues>
            -8.8805788755416870e-01 1.3333681225776672e-01</leafValues></_></weakClassifiers></_>
    <!-- stage 21 -->
    <_>
      <maxWeakCount>8</maxWeakCount>
      <stageThreshold>2.0651462674140930e-01</stageThreshold>
      <weakClassifiers>
        <_>
          <internalNodes>
            0 -1 28 -4.5954182744026184e-02</internalNodes>
          <leafValues>
            -8.0564260482788086e-01 9.2242705821990967e-01</leafValues></_>
        <_>
          <internalNodes>
            0 -1 51 1.8480015918612480e-02</internalNodes>
          <leafValues>
            6.9856369495391846e-01 -5.3525269031524658e-01</leafValues></_>
        <_>
          <internalNodes>
            0 -1 32 -1.8828021362423897e-02</internalNodes>
          <leafValues>
            6.4904278516769409e-01 -3.4890893101692200e-01</leafValues></_>
        <_>
          <internalNodes>
            0 -1 5 -4.2776960879564285e-02</internalNodes>
          <leafValues>
            -7.4517071247100830e-01 3.3252313733100891e-01</leafValues></_>
        <_>
          <internalNodes>
            0 -1 79 -1.0152149945497513e-02</internalNodes>
          <leafValues>
            3.4633386135101318e-01 -5.3843331336975098e-01</leafValues></_>
        <_>
          <internalNodes>
            0 -1 70 -1.8381603877060115e-04</internalNodes>
          <leafValues>
            4.2215576767921448e-01 -4.4381710886955261e-01</leafValues></_>
        <_>
          <internalNodes>
            0 -1 82 -1.8166152294725180e-03</internalNodes>
          <leafValues>
            -6.3973462581634521e-01 2.8262490034103394e-01</leafValues></_>
        <_>
          <internalNodes>
            0 -1 41 -1.2230159714818001e-02</internalNodes>
          <leafValues>
            4.5754635334014893e-01 -5.0553810596466064e-01</leafValues></_></weakClassifiers></_>
    <!-- stage 22 -->
    <_>
      <maxWeakCount>6</maxWeakCount>
      <stageThreshold>5.5872452259063721e-01</stageThreshold>
      <weakClassifiers>
        <_>
          <internalNodes>
            0 -1 4 -3.1590465456247330e-02</internalNodes>
          <leafValues>
            -7.8674352169036865e-01 9.2376679182052612e-01</leafValues></_>
        <_>
          <internalNodes>
            0 -1 30 -1.1273715645074844e-02</internalNodes>
          <leafValues>
            7.8840667009353638e-01 -1.5427137911319733e-01</leafValues></_>
        <_>
          <internalNodes>
            0 -1 87 6.4328834414482117e-02</internalNodes>
          <leafValues>
            -2.9498413205146790e-01 7.2238683700561523e-01</leafValues></_>
        <_>
          <internalNodes>
            0 -1 106 -6.5765052568167448e-04</internalNodes>
          <leafValues>
            -6.0539275407791138e-01 4.2634007334709167e-01</leafValues></_>
        <_>
          <internalNodes>
            0 -1 19 4.1772425174713135e-02</internalNodes>
          <leafValues>
            -3.8437187671661377e-01 6.4117294549942017e-01</leafValues></_>
        <_>
          <internalNodes>
            0 -1 108 7.5140729546546936e-02</internalNodes>
          <leafValues>
            -2.8182634711265564e-01 8.1007725000381470e-01</leafValues></_></weakClassifiers></_>
    <!-- stage 23 -->
    <_>
      <maxWeakCount>5</maxWeakCount>
      <stageThreshold>3.6847427487373352e-01</stageThreshold>
      <weakClassifiers>
        <_>
          <internalNodes>
            0 -1 90 1.0665001720190048e-01</internalNodes>
          <leafValues>
            9.3558430671691895e-01 -3.7771740555763245e-01</leafValues></_>
        <_>
          <internalNodes>
            0 -1 26 -9.9901139736175537e-02</internalNodes>
          <leafValues>
            -3.7049138545989990e-01 8.2557910680770874e-01</leafValues></_>
        <_>
          <internalNodes>
            0 -1 96 -1.1449183337390423e-02</internalNodes>
          <leafValues>
            6.8494701385498047e-01 -4.1268905997276306e-01</leafValues></_>
        <_>
          <internalNodes>
            0 -1 35 -1.1296913959085941e-02</internalNodes>
          <leafValues>
            7.0287144184112549e-01 -3.9647758007049561e-01</leafValues></_>
        <_>
          <internalNodes>
            0 -1 69 1.4847593847662210e-03</internalNodes>
          <leafValues>
            -4.8680105805397034e-01 7.4143767356872559e-01</leafValues></_></weakClassifiers></_>
    <!-- stage 24 -->
    <_>
      <maxWeakCount>4</maxWeakCount>
      <stageThreshold>6.5631037950515747e-01</stageThreshold>
      <weakClassifiers>
        <_>
          <internalNodes>
            0 -1 86 -4.5022796839475632e-03</internalNodes>
          <leafValues>
            -6.1201500892639160e-01 9.4435775279998779e-01</leafValues></_>
        <_>
          <internalNodes>
            0 -1 20 2.4982850998640060e-02</internalNodes>
          <leafValues>
            8.5838496685028076e-01 -3.6059477925300598e-01</leafValues></_>
        <_>
          <internalNodes>
            0 -1 84 -9.0210152848158032e-05</internalNodes>
          <leafValues>
            7.0003515481948853e-01 -6.7048186063766479e-01</leafValues></_>
        <_>
          <internalNodes>
            0 -1 47 -3.5698481369763613e-03</internalNodes>
          <leafValues>
            7.8421705961227417e-01 -4.7595050930976868e-01</leafValues></_></weakClassifiers></_></stages>
  <features>
    <_>
      <rects>
        <_>
          0 0 2 4 -1.</_>
        <_>
          1 0 1 4 2.</_></rects>
      <tilted>0</tilted></_>
    <_>
      <rects>
        <_>
          0 0 2 12 -1.</_>
        <_>
          0 0 1 6 2.</_>
        <_>
          1 6 1 6 2.</_></rects>
      <tilted>0</tilted></_>
    <_>
      <rects>
        <_>
          0 0 9 2 -1.</_>
        <_>
          3 0 3 2 3.</_></rects>
      <tilted>0</tilted></_>
    <_>
      <rects>
        <_>
          0 0 4 2 -1.</_>
        <_>
          0 1 4 1 2.</_></rects>
      <tilted>0</tilted></_>
    <_>
      <rects>
        <_>
          0 0 12 2 -1.</_>
        <_>
          0 0 6 1 2.</_>
        <_>
          6 1 6 1 2.</_></rects>
      <tilted>0</tilted></_>
    <_>
      <rects>
        <_>
          0 0 12 3 -1.</_>
        <_>
          6 0 6 3 2.</_></rects>
      <tilted>0</tilted></_>
    <_>
      <rects>
        <_>
          0 0 6 12 -1.</_>
        <_>
          0 6 6 6 2.</_></rects>
      <tilted>0</tilted></_>
    <_>
      <rects>
        <_>
          0 0 12 4 -1.</_>
        <_>
          0 2 12 2 2.</_></rects>
      <tilted>0</tilted></_>
    <_>
      <rects>
        <_>
          0 0 12 12 -1.</_>
        <_>
          0 4 12 4 3.</_></rects>
      <tilted>0</tilted></_>
    <_>
      <rects>
        <_>
          0 1 2 6 -1.</_>
        <_>
          0 3 2 2 3.</_></rects>
      <tilted>0</tilted></_>
    <_>
      <rects>
        <_>
          0 1 4 4 -1.</_>
        <_>
          0 1 2 2 2.</_>
        <_>
          2 3 2 2 2.</_></rects>
      <tilted>0</tilted></_>
    <_>
      <rects>
        <_>
          0 1 6 2 -1.</_>
        <_>
          0 1 3 1 2.</_>
        <_>
          3 2 3 1 2.</_></rects>
      <tilted>0</tilted></_>
    <_>
      <rects>
        <_>
          0 2 3 3 -1.</_>
        <_>
          1 2 1 3 3.</_></rects>
      <tilted>0</tilted></_>
    <_>
      <rects>
        <_>
          0 2 12 3 -1.</_>
        <_>
          4 2 4 3 3.</_></rects>
      <tilted>0</tilted></_>
    <_>
      <rects>
        <_>
          0 2 12 6 -1.</_>
        <_>
          4 2 4 6 3.</_></rects>
      <tilted>0</tilted></_>
    <_>
      <rects>
        <_>
          0 2 12 3 -1.</_>
        <_>
          6 2 6 3 2.</_></rects>
      <tilted>0</tilted></_>
    <_>
      <rects>
        <_>
          0 2 10 10 -1.</_>
        <_>
          0 7 10 5 2.</_></rects>
      <tilted>0</tilted></_>
    <_>
      <rects>
        <_>
          0 3 9 6 -1.</_>
        <_>
          3 3 3 6 3.</_></rects>
      <tilted>0</tilted></_>
    <_>
      <rects>
        <_>
          0 3 12 6 -1.</_>
        <_>
          4 3 4 6 3.</_></rects>
      <tilted>0</tilted></_>
    <_>
      <rects>
        <_>
          0 4 6 2 -1.</_>
        <_>
          2 4 2 2 3.</_></rects>
      <tilted>0</tilted></_>
    <_>
      <rects>
        <_>
          0 4 4 4 -1.</_>
        <_>
          0 6 4 2 2.</_></rects>
      <tilted>0</tilted></_>
    <_>
      <rects>
        <_>
          0 4 10 8 -1.</_>
        <_>
          5 4 5 8 2.</_></rects>
      <tilted>0</tilted></_>
    <_>
      <rects>
        <_>
          0 5 12 7 -1.</_>
        <_>
          6 5 6 7 2.</_></rects>
      <tilted>0</tilted></_>
    <_>
      <rects>
        <_>
          0 5 12 6 -1.</_>
        <_>
          0 7 12 2 3.</_></rects>
      <tilted>0</tilted></_>
    <_>
      <rects>
        <_>
          0 7 8 3 -1.</_>
        <_>
          4 7 4 3 2.</_></rects>
      <tilted>0</tilted></_>
    <_>
      <rects>
        <_>
          0 7 12 3 -1.</_>
        <_>
          4 7 4 3 3.</_></rects>
      <tilted>0</tilted></_>
    <_>
      <rects>
        <_>
          0 7 12 5 -1.</_>
        <_>
          6 7 6 5 2.</_></rects>
      <tilted>0</tilted></_>
    <_>
      <rects>
        <_>
          0 8 4 4 -1.</_>
        <_>
          2 8 2 4 2.</_></rects>
      <tilted>0</tilted></_>
    <_>
      <rects>
        <_>
          0 8 6 2 -1.</_>
        <_>
          0 9 6 1 2.</_></rects>
      <tilted>0</tilted></_>
    <_>
      <rects>
        <_>
          0 9 2 3 -1.</_>
        <_>
          1 9 1 3 2.</_></rects>
      <tilted>0</tilted></_>
    <_>
      <rects>
        <_>
          0 9 6 2 -1.</_>
        <_>
          0 10 6 1 2.</_></rects>
      <tilted>0</tilted></_>
    <_>
      <rects>
        <_>
          1 0 2 1 -1.</_>
        <_>
          2 0 1 1 2.</_></rects>
      <tilted>0</tilted></_>
    <_>
      <rects>
        <_>
          1 0 4 2 -1.</_>
        <_>
          3 0 2 2 2.</_></rects>
      <tilted>0</tilted></_>
    <_>
      <rects>
        <_>
          1 0 6 2 -1.</_>
        <_>
          3 0 2 2 3.</_></rects>
      <tilted>0</tilted></_>
    <_>
      <rects>
        <_>
          1 0 6 6 -1.</_>
        <_>
          3 0 2 6 3.</_></rects>
      <tilted>0</tilted></_>
    <_>
      <rects>
        <_>
          1 0 6 1 -1.</_>
        <_>
          4 0 3 1 2.</_></rects>
      <tilted>0</tilted></_>
    <_>
      <rects>
        <_>
          1 0 9 1 -1.</_>
        <_>
          4 0 3 1 3.</_></rects>
      <tilted>0</tilted></_>
    <_>
      <rects>
        <_>
          1 1 11 8 -1.</_>
        <_>
          1 5 11 4 2.</_></rects>
      <tilted>0</tilted></_>
    <_>
      <rects>
        <_>
          1 2 4 2 -1.</_>
        <_>
          3 2 2 2 2.</_></rects>
      <tilted>0</tilted></_>
    <_>
      <rects>
        <_>
          1 2 4 3 -1.</_>
        <_>
          3 2 2 3 2.</_></rects>
      <tilted>0</tilted></_>
    <_>
      <rects>
        <_>
          1 2 9 8 -1.</_>
        <_>
          4 2 3 8 3.</_></rects>
      <tilted>0</tilted></_>
    <_>
      <rects>
        <_>
          1 6 1 6 -1.</_>
        <_>
          1 8 1 2 3.</_></rects>
      <tilted>0</tilted></_>
    <_>
      <rects>
        <_>
          1 7 2 1 -1.</_>
        <_>
          2 7 1 1 2.</_></rects>
      <tilted>0</tilted></_>
    <_>
      <rects>
        <_>
          1 8 2 4 -1.</_>
        <_>
          1 8 1 2 2.</_>
        <_>
          2 10 1 2 2.</_></rects>
      <tilted>0</tilted></_>
    <_>
      <rects>
        <_>
          1 9 2 2 -1.</_>
        <_>
          1 9 1 1 2.</_>
        <_>
          2 10 1 1 2.</_></rects>
      <tilted>0</tilted></_>
    <_>
      <rects>
        <_>
          1 10 4 2 -1.</_>
        <_>
          1 11 4 1 2.</_></rects>
      <tilted>0</tilted></_>
    <_>
      <rects>
        <_>
          1 11 6 1 -1.</_>
        <_>
          4 11 3 1 2.</_></rects>
      <tilted>0</tilted></_>
    <_>
      <rects>
        <_>
          2 0 2 2 -1.</_>
        <_>
          3 0 1 2 2.</_></rects>
      <tilted>0</tilted></_>
    <_>
      <rects>
        <_>
          2 0 2 12 -1.</_>
        <_>
          2 4 2 4 3.</_></rects>
      <tilted>0</tilted></_>
    <_>
      <rects>
        <_>
          2 0 9 1 -1.</_>
        <_>
          5 0 3 1 3.</_></rects>
      <tilted>0</tilted></_>
    <_>
      <rects>
        <_>
          2 0 3 3 -1.</_>
        <_>
          2 1 3 1 3.</_></rects>
      <tilted>0</tilted></_>
    <_>
      <rects>
        <_>
          2 0 10 6 -1.</_>
        <_>
          7 0 5 6 2.</_></rects>
      <tilted>0</tilted></_>
    <_>
      <rects>
        <_>
          2 0 7 12 -1.</_>
        <_>
          2 4 7 4 3.</_></rects>
      <tilted>0</tilted></_>
    <_>
      <rects>
        <_>
          2 1 3 4 -1.</_>
        <_>
          2 3 3 2 2.</_></rects>
      <tilted>0</tilted></_>
    <_>
      <rects>
        <_>
          2 2 1 9 -1.</_>
        <_>
          2 5 1 3 3.</_></rects>
      <tilted>0</tilted></_>
    <_>
      <rects>
        <_>
          2 2 9 9 -1.</_>
        <_>
          5 2 3 9 3.</_></rects>
      <tilted>0</tilted></_>
    <_>
      <rects>
        <_>
          2 2 8 9 -1.</_>
        <_>
          2 5 8 3 3.</_></rects>
      <tilted>0</tilted></_>
    <_>
      <rects>
        <_>
          2 5 2 6 -1.</_>
        <_>
          2 8 2 3 2.</_></rects>
      <tilted>0</tilted></_>
    <_>
      <rects>
        <_>
          2 6 4 4 -1.</_>
        <_>
          2 6 2 2 2.</_>
        <_>
          4 8 2 2 2.</_></rects>
      <tilted>0</tilted></_>
    <_>
      <rects>
        <_>
          2 7 2 1 -1.</_>
        <_>
          3 7 1 1 2.</_></rects>
      <tilted>0</tilted></_>
    <_>
      <rects>
        <_>
          3 0 2 12 -1.</_>
        <_>
          3 4 2 4 3.</_></rects>
      <tilted>0</tilted></_>
    <_>
      <rects>
        <_>
          3 1 6 2 -1.</_>
        <_>
          3 2 6 1 2.</_></rects>
      <tilted>0</tilted></_>
    <_>
      <rects>
        <_>
          3 4 2 1 -1.</_>
        <_>
          4 4 1 1 2.</_></rects>
      <tilted>0</tilted></_>
    <_>
      <rects>
        <_>
          3 10 9 2 -1.</_>
        <_>
          6 10 3 2 3.</_></rects>
      <tilted>0</tilted></_>
    <_>
      <rects>
        <_>
          4 0 4 12 -1.</_>
        <_>
          4 0 2 6 2.</_>
        <_>
          6 6 2 6 2.</_></rects>
      <tilted>0</tilted></_>
    <_>
      <rects>
        <_>
          4 0 8 4 -1.</_>
        <_>
          4 0 4 2 2.</_>
        <_>
          8 2 4 2 2.</_></rects>
      <tilted>0</tilted></_>
    <_>
      <rects>
        <_>
          4 2 8 5 -1.</_>
        <_>
          8 2 4 5 2.</_></rects>
      <tilted>0</tilted></_>
    <_>
      <rects>
        <_>
          4 4 3 1 -1.</_>
        <_>
          5 4 1 1 3.</_></rects>
      <tilted>0</tilted></_>
    <_>
      <rects>
        <_>
          5 0 5 12 -1.</_>
        <_>
          5 4 5 4 3.</_></rects>
      <tilted>0</tilted></_>
    <_>
      <rects>
        <_>
          5 5 3 1 -1.</_>
        <_>
          6 5 1 1 3.</_></rects>
      <tilted>0</tilted></_>
    <_>
      <rects>
        <_>
          5 6 1 2 -1.</_>
        <_>
          5 7 1 1 2.</_></rects>
      <tilted>0</tilted></_>
    <_>
      <rects>
        <_>
          5 7 3 1 -1.</_>
        <_>
          6 7 1 1 3.</_></rects>
      <tilted>0</tilted></_>
    <_>
      <rects>
        <_>
          5 11 6 1 -1.</_>
        <_>
          8 11 3 1 2.</_></rects>
      <tilted>0</tilted></_>
    <_>
      <rects>
        <_>
          6 0 6 3 -1.</_>
        <_>
          8 0 2 3 3.</_></rects>
      <tilted>0</tilted></_>
    <_>
      <rects>
        <_>
          6 2 4 4 -1.</_>
        <_>
          6 2 2 2 2.</_>
        <_>
          8 4 2 2 2.</_></rects>
      <tilted>0</tilted></_>
    <_>
      <rects>
        <_>
          6 3 6 9 -1.</_>
        <_>
          9 3 3 9 2.</_></rects>
      <tilted>0</tilted></_>
    <_>
      <rects>
        <_>
          6 6 6 4 -1.</_>
        <_>
          9 6 3 4 2.</_></rects>
      <tilted>0</tilted></_>
    <_>
      <rects>
        <_>
          6 8 6 4 -1.</_>
        <_>
          6 8 3 2 2.</_>
        <_>
          9 10 3 2 2.</_></rects>
      <tilted>0</tilted></_>
    <_>
      <rects>
        <_>
          6 9 6 3 -1.</_>
        <_>
          8 9 2 3 3.</_></rects>
      <tilted>0</tilted></_>
    <_>
      <rects>
        <_>
          6 10 6 1 -1.</_>
        <_>
          8 10 2 1 3.</_></rects>
      <tilted>0</tilted></_>
    <_>
      <rects>
        <_>
          6 10 6 2 -1.</_>
        <_>
          9 10 3 2 2.</_></rects>
      <tilted>0</tilted></_>
    <_>
      <rects>
        <_>
          7 0 3 2 -1.</_>
        <_>
          7 1 3 1 2.</_></rects>
      <tilted>0</tilted></_>
    <_>
      <rects>
        <_>
          7 1 3 11 -1.</_>
        <_>
          8 1 1 11 3.</_></rects>
      <tilted>0</tilted></_>
    <_>
      <rects>
        <_>
          7 1 3 4 -1.</_>
        <_>
          7 3 3 2 2.</_></rects>
      <tilted>0</tilted></_>
    <_>
      <rects>
        <_>
          7 3 2 1 -1.</_>
        <_>
          8 3 1 1 2.</_></rects>
      <tilted>0</tilted></_>
    <_>
      <rects>
        <_>
          7 7 2 1 -1.</_>
        <_>
          8 7 1 1 2.</_></rects>
      <tilted>0</tilted></_>
    <_>
      <rects>
        <_>
          7 8 1 3 -1.</_>
        <_>
          7 9 1 1 3.</_></rects>
      <tilted>0</tilted></_>
    <_>
      <rects>
        <_>
          7 8 4 4 -1.</_>
        <_>
          7 8 2 2 2.</_>
        <_>
          9 10 2 2 2.</_></rects>
      <tilted>0</tilted></_>
    <_>
      <rects>
        <_>
          7 9 3 3 -1.</_>
        <_>
          7 10 3 1 3.</_></rects>
      <tilted>0</tilted></_>
    <_>
      <rects>
        <_>
          8 0 2 8 -1.</_>
        <_>
          8 4 2 4 2.</_></rects>
      <tilted>0</tilted></_>
    <_>
      <rects>
        <_>
          8 0 3 12 -1.</_>
        <_>
          8 6 3 6 2.</_></rects>
      <tilted>0</tilted></_>
    <_>
      <rects>
        <_>
          8 1 2 6 -1.</_>
        <_>
          8 4 2 3 2.</_></rects>
      <tilted>0</tilted></_>
    <_>
      <rects>
        <_>
          8 1 2 9 -1.</_>
        <_>
          8 4 2 3 3.</_></rects>
      <tilted>0</tilted></_>
    <_>
      <rects>
        <_>
          8 2 2 8 -1.</_>
        <_>
          9 2 1 8 2.</_></rects>
      <tilted>0</tilted></_>
    <_>
      <rects>
        <_>
          8 4 2 1 -1.</_>
        <_>
          9 4 1 1 2.</_></rects>
      <tilted>0</tilted></_>
    <_>
      <rects>
        <_>
          8 7 4 4 -1.</_>
        <_>
          8 7 2 2 2.</_>
        <_>
          10 9 2 2 2.</_></rects>
      <tilted>0</tilted></_>
    <_>
      <rects>
        <_>
          8 8 2 2 -1.</_>
        <_>
          9 8 1 2 2.</_></rects>
      <tilted>0</tilted></_>
    <_>
      <rects>
        <_>
          8 8 2 2 -1.</_>
        <_>
          8 9 2 1 2.</_></rects>
      <tilted>0</tilted></_>
    <_>
      <rects>
        <_>
          8 9 1 3 -1.</_>
        <_>
          8 10 1 1 3.</_></rects>
      <tilted>0</tilted></_>
    <_>
      <rects>
        <_>
          8 10 4 2 -1.</_>
        <_>
          8 11 4 1 2.</_></rects>
      <tilted>0</tilted></_>
    <_>
      <rects>
        <_>
          9 0 1 9 -1.</_>
        <_>
          9 3 1 3 3.</_></rects>
      <tilted>0</tilted></_>
    <_>
      <rects>
        <_>
          9 0 3 6 -1.</_>
        <_>
          9 2 3 2 3.</_></rects>
      <tilted>0</tilted></_>
    <_>
      <rects>
        <_>
          9 1 1 4 -1.</_>
        <_>
          9 3 1 2 2.</_></rects>
      <tilted>0</tilted></_>
    <_>
      <rects>
        <_>
          9 1 3 3 -1.</_>
        <_>
          10 1 1 3 3.</_></rects>
      <tilted>0</tilted></_>
    <_>
      <rects>
        <_>
          9 7 3 3 -1.</_>
        <_>
          10 7 1 3 3.</_></rects>
      <tilted>0</tilted></_>
    <_>
      <rects>
        <_>
          9 10 3 2 -1.</_>
        <_>
          9 11 3 1 2.</_></rects>
      <tilted>0</tilted></_>
    <_>
      <rects>
        <_>
          10 0 2 3 -1.</_>
        <_>
          11 0 1 3 2.</_></rects>
      <tilted>0</tilted></_>
    <_>
      <rects>
        <_>
          10 0 1 12 -1.</_>
        <_>
          10 6 1 6 2.</_></rects>
      <tilted>0</tilted></_>
    <_>
      <rects>
        <_>
          10 1 1 9 -1.</_>
        <_>
          10 4 1 3 3.</_></rects>
      <tilted>0</tilted></_>
    <_>
      <rects>
        <_>
          10 8 2 3 -1.</_>
        <_>
          11 8 1 3 2.</_></rects>
      <tilted>0</tilted></_>
    <_>
      <rects>
        <_>
          11 0 1 12 -1.</_>
        <_>
          11 4 1 4 3.</_></rects>
      <tilted>0</tilted></_></features></cascade>
</opencv_storage>
