<?xml version="1.0"?>
<opencv_storage>
<cascade>
  <stageType>BOOST</stageType>
  <featureType>HAAR</featureType>
  <height>12</height>
  <width>12</width>
  <stageParams>
    <boostType>GAB</boostType>
    <minHitRate>9.9500000476837158e-01</minHitRate>
    <maxFalseAlarm>5.0000000000000000e-01</maxFalseAlarm>
    <weightTrimRate>9.4999998807907104e-01</weightTrimRate>
    <maxDepth>1</maxDepth>
    <maxWeakCount>100</maxWeakCount></stageParams>
  <featureParams>
    <maxCatCount>0</maxCatCount>
    <featSize>1</featSize>
    <mode>BASIC</mode></featureParams>
  <stageNum>20</stageNum>
  <stages>
    <!-- stage 0 -->
    <_>
      <maxWeakCount>2</maxWeakCount>
      <stageThreshold>3.2636228948831558e-02</stageThreshold>
      <weakClassifiers>
        <_>
          <internalNodes>
            0 -1 43 2.0147508382797241e-01</internalNodes>
          <leafValues>
            -8.4720075130462646e-01 9.5263344049453735e-01</leafValues></_>
        <_>
          <internalNodes>
            0 -1 7 2.5751829147338867e-01</internalNodes>
          <leafValues>
            -8.4326881170272827e-01 8.7983697652816772e-01</leafValues></_></weakClassifiers></_>
    <!-- stage 1 -->
    <_>
      <maxWeakCount>3</maxWeakCount>
      <stageThreshold>-5.3407746553421021e-01</stageThreshold>
      <weakClassifiers>
        <_>
          <internalNodes>
            0 -1 93 -7.1948945522308350e-02</internalNodes>
          <leafValues>
            9.2235869169235229e-01 -8.0202651023864746e-01</leafValues></_>
        <_>
          <internalNodes>
            0 -1 39 6.6567137837409973e-02</internalNodes>
          <leafValues>
            -5.5619138479232788e-01 9.2374742031097412e-01</leafValues></_>
        <_>
          <internalNodes>
            0 -1 5 7.8538939356803894e-02</internalNodes>
          <leafValues>
            -9.0024477243423462e-01 6.7508322000503540e-01</leafValues></_></weakClassifiers></_>
    <!-- stage 2 -->
    <_>
      <maxWeakCount>2</maxWeakCount>
      <stageThreshold>9.5880590379238129e-02</stageThreshold>
      <weakClassifiers>
        <_>
          <internalNodes>
            0 -1 5 7.2978332638740540e-02</internalNodes>
          <leafValues>
            -7.9797220230102539e-01 9.2596518993377686e-01</leafValues></_>
        <_>
          <internalNodes>
            0 -1 125 5.8692894876003265e-02</internalNodes>
          <leafValues>
            -6.0434627532958984e-01 8.9385282993316650e-01</leafValues></_></weakClassifiers></_>
    <!-- stage 3 -->
    <_>
      <maxWeakCount>1</maxWeakCount>
      <stageThreshold>9.1333365440368652e-01</stageThreshold>
      <weakClassifiers>
        <_>
          <internalNodes>
            0 -1 36 -4.3051071465015411e-02</internalNodes>
          <leafValues>
            9.1333365440368652e-01 -8.3435046672821045e-01</leafValues></_></weakClassifiers></_>
    <!-- stage 4 -->
    <_>
      <maxWeakCount>5</maxWeakCount>
      <stageThreshold>1.2924894690513611e-01</stageThreshold>
      <weakClassifiers>
        <_>
          <internalNodes>
            0 -1 29 -1.0892117023468018e-01</internalNodes>
          <leafValues>
            -9.2588669061660767e-01 9.0122056007385254e-01</leafValues></_>
        <_>
          <internalNodes>
            0 -1 101 1.7986930906772614e-02</internalNodes>
          <leafValues>
            -3.3250281214714050e-01 8.9394098520278931e-01</leafValues></_>
        <_>
          <internalNodes>
            0 -1 44 -1.9996512681245804e-02</internalNodes>
          <leafValues>
            8.4845143556594849e-01 -3.9575985074043274e-01</leafValues></_>
        <_>
          <internalNodes>
            0 -1 35 1.6242098063230515e-02</internalNodes>
          <leafValues>
            -3.6797711253166199e-01 7.3689138889312744e-01</leafValues></_>
        <_>
          <internalNodes>
            0 -1 19 1.6248330473899841e-01</internalNodes>
          <leafValues>
            3.2426813244819641e-01 -9.5798009634017944e-01</leafValues></_></weakClassifiers></_>
    <!-- stage 5 -->
    <_>
      <maxWeakCount>2</maxWeakCount>
      <stageThreshold>2.1834933757781982e-01</stageThreshold>
      <weakClassifiers>
        <_>
          <internalNodes>
            0 -1 14 -1.6786072403192520e-02</internalNodes>
          <leafValues>
            -6.6701865196228027e-01 9.2445665597915649e-01</leafValues></_>
        <_>
          <internalNodes>
            0 -1 15 2.1196264773607254e-02</internalNodes>
          <leafValues>
            -2.4077558517456055e-01 8.8536798954010010e-01</leafValues></_></weakClassifiers></_>
    <!-- stage 6 -->
    <_>
      <maxWeakCount>2</maxWeakCount>
      <stageThreshold>1.9931392371654510e-01</stageThreshold>
      <weakClassifiers>
        <_>
          <internalNodes>
            0 -1 45 3.0556265264749527e-02</internalNodes>
          <leafValues>
            9.5025062561035156e-01 -6.5569621324539185e-01</leafValues></_>
        <_>
          <internalNodes>
            0 -1 95 -4.2310327291488647e-02</internalNodes>
          <leafValues>
            8.5501015186309814e-01 -5.0179588794708252e-01</leafValues></_></weakClassifiers></_>
    <!-- stage 7 -->
    <_>
      <maxWeakCount>5</maxWeakCount>
      <stageThreshold>3.5145065188407898e-01</stageThreshold>
      <weakClassifiers>
        <_>
          <internalNodes>
            0 -1 48 -1.5274447202682495e-01</internalNodes>
          <leafValues>
            -7.5026452541351318e-01 8.9374518394470215e-01</leafValues></_>
        <_>
          <internalNodes>
            0 -1 9 1.0792747884988785e-01</internalNodes>
          <leafValues>
            -2.6174846291542053e-01 9.0263718366622925e-01</leafValues></_>
        <_>
          <internalNodes>
            0 -1 98 1.3498252630233765e-01</internalNodes>
          <leafValues>
            -3.1769749522209167e-01 8.8773900270462036e-01</leafValues></_>
        <_>
          <internalNodes>
            0 -1 85 1.0144410654902458e-02</internalNodes>
          <leafValues>
            -2.3024949431419373e-01 8.7368363142013550e-01</leafValues></_>
        <_>
          <internalNodes>
            0 -1 8 5.2849533967673779e-03</internalNodes>
          <leafValues>
            -8.3653223514556885e-01 3.6856213212013245e-01</leafValues></_></weakClassifiers></_>
    <!-- stage 8 -->
    <_>
      <maxWeakCount>6</maxWeakCount>
      <stageThreshold>1.8102603033185005e-02</stageThreshold>
      <weakClassifiers>
        <_>
          <internalNodes>
            0 -1 0 1.7686662077903748e-01</internalNodes>
          <leafValues>
            8.7869137525558472e-01 -7.8497588634490967e-01</leafValues></_>
        <_>
          <internalNodes>
            0 -1 81 4.9959262832999229e-03</internalNodes>
          <leafValues>
            -1.9930404424667358e-01 9.1712039709091187e-01</leafValues></_>
        <_>
          <internalNodes>
            0 -1 59 1.8393825739622116e-02</internalNodes>
          <leafValues>
            -4.0327030420303345e-01 7.2942757606506348e-01</leafValues></_>
        <_>
          <internalNodes>
            0 -1 50 -1.3132236897945404e-02</internalNodes>
          <leafValues>
            8.1347656250000000e-01 -3.2457762956619263e-01</leafValues></_>
        <_>
          <internalNodes>
            0 -1 97 -1.7599731683731079e-02</internalNodes>
          <leafValues>
            7.4923026561737061e-01 -2.9915046691894531e-01</leafValues></_>
        <_>
          <internalNodes>
            0 -1 118 -2.7142945327796042e-04</internalNodes>
          <leafValues>
            3.6571368575096130e-01 -4.8142805695533752e-01</leafValues></_></weakClassifiers></_>
    <!-- stage 9 -->
    <_>
      <maxWeakCount>4</maxWeakCount>
      <stageThreshold>2.3208704590797424e-01</stageThreshold>
      <weakClassifiers>
        <_>
          <internalNodes>
            0 -1 74 7.3745131492614746e-01</internalNodes>
          <leafValues>
            9.0462058782577515e-01 -7.0320856571197510e-01</leafValues></_>
        <_>
          <internalNodes>
            0 -1 114 1.5628460794687271e-02</internalNodes>
          <leafValues>
            -2.5242987275123596e-01 8.5757756233215332e-01</leafValues></_>
        <_>
          <internalNodes>
            0 -1 107 -2.2241350263357162e-02</internalNodes>
          <leafValues>
            8.1812810897827148e-01 -3.3982950448989868e-01</leafValues></_>
        <_>
          <internalNodes>
            0 -1 72 -4.6465378999710083e-01</internalNodes>
          <leafValues>
            -8.0537372827529907e-01 4.1754758358001709e-01</leafValues></_></weakClassifiers></_>
    <!-- stage 10 -->
    <_>
      <maxWeakCount>6</maxWeakCount>
      <stageThreshold>4.5160554349422455e-02</stageThreshold>
      <weakClassifiers>
        <_>
          <internalNodes>
            0 -1 3 1.4823965728282928e-01</internalNodes>
          <leafValues>
            8.9777982234954834e-01 -2.7492877840995789e-01</leafValues></_>
        <_>
          <internalNodes>
            0 -1 110 4.3078958988189697e-02</internalNodes>
          <leafValues>
            -2.6247701048851013e-01 8.4569865465164185e-01</leafValues></_>
        <_>
          <internalNodes>
            0 -1 17 -6.0877278447151184e-02</internalNodes>
          <leafValues>
            8.0891311168670654e-01 -2.4284265935420990e-01</leafValues></_>
        <_>
          <internalNodes>
            0 -1 102 8.2031071186065674e-02</internalNodes>
          <leafValues>
            -3.4591639041900635e-01 6.5405839681625366e-01</leafValues></_>
        <_>
          <internalNodes>
            0 -1 22 4.0394868701696396e-02</internalNodes>
          <leafValues>
            -2.7980676293373108e-01 6.8710935115814209e-01</leafValues></_>
        <_>
          <internalNodes>
            0 -1 70 2.0038742513861507e-04</internalNodes>
          <leafValues>
            -4.8790007829666138e-01 3.4295645356178284e-01</leafValues></_></weakClassifiers></_>
    <!-- stage 11 -->
    <_>
      <maxWeakCount>8</maxWeakCount>
      <stageThreshold>-2.4700318276882172e-01</stageThreshold>
      <weakClassifiers>
        <_>
          <internalNodes>
            0 -1 1 -1.1111477017402649e-01</internalNodes>
          <leafValues>
            -3.4325295686721802e-01 8.7795639038085938e-01</leafValues></_>
        <_>
          <internalNodes>
            0 -1 117 -1.7173964530229568e-02</internalNodes>
          <leafValues>
            8.3130723237991333e-01 -2.4197670817375183e-01</leafValues></_>
        <_>
          <internalNodes>
            0 -1 55 -7.1753729134798050e-03</internalNodes>
          <leafValues>
            7.6123231649398804e-01 -2.9537782073020935e-01</leafValues></_>
        <_>
          <internalNodes>
            0 -1 77 2.2161919623613358e-02</internalNodes>
          <leafValues>
            -3.0860546231269836e-01 6.1346149444580078e-01</leafValues></_>
        <_>
          <internalNodes>
            0 -1 124 4.9593649804592133e-02</internalNodes>
          <leafValues>
            -2.4255321919918060e-01 7.4600261449813843e-01</leafValues></_>
        <_>
          <internalNodes>
            0 -1 2 -1.0273230075836182e-01</internalNodes>
          <leafValues>
            -8.7383276224136353e-01 1.9512186944484711e-01</leafValues></_>
        <_>
          <internalNodes>
            0 -1 94 -1.9617231737356633e-04</internalNodes>
          <leafValues>
            3.4193822741508484e-01 -4.7726455330848694e-01</leafValues></_>
        <_>
          <internalNodes>
            0 -1 112 2.4786107242107391e-02</internalNodes>
          <leafValues>
            -2.7436405420303345e-01 5.4074740409851074e-01</leafValues></_></weakClassifiers></_>
    <!-- stage 12 -->
    <_>
      <maxWeakCount>10</maxWeakCount>
      <stageThreshold>-3.4420150518417358e-01</stageThreshold>
      <weakClassifiers>
        <_>
          <internalNodes>
            0 -1 53 1.1116325855255127e-02</internalNodes>
          <leafValues>
            8.7383449077606201e-01 -4.5686513185501099e-01</leafValues></_>
        <_>
          <internalNodes>
            0 -1 116 1.5010667033493519e-02</internalNodes>
          <leafValues>
            -6.8129904568195343e-02 8.9329725503921509e-01</leafValues></_>
        <_>
          <internalNodes>
            0 -1 50 -1.4561073854565620e-02</internalNodes>
          <leafValues>
            7.5290930271148682e-01 -2.7065247297286987e-01</leafValues></_>
        <_>
          <internalNodes>
            0 -1 83 -3.1568381935358047e-02</internalNodes>
          <leafValues>
            8.0286377668380737e-01 -2.4655076861381531e-01</leafValues></_>
        <_>
          <internalNodes>
            0 -1 34 2.7754977345466614e-02</internalNodes>
          <leafValues>
            -3.6316359043121338e-01 4.8207542300224304e-01</leafValues></_>
        <_>
          <internalNodes>
            0 -1 51 2.0849946886301041e-02</internalNodes>
          <leafValues>
            -2.9391241073608398e-01 4.9191036820411682e-01</leafValues></_>
        <_>
          <internalNodes>
            0 -1 64 2.1124364866409451e-04</internalNodes>
          <leafValues>
            -4.0610718727111816e-01 3.9930948615074158e-01</leafValues></_>
        <_>
          <internalNodes>
            0 -1 13 1.5229800716042519e-02</internalNodes>
          <leafValues>
            -2.6006656885147095e-01 6.0244822502136230e-01</leafValues></_>
        <_>
          <internalNodes>
            0 -1 123 -1.2088028714060783e-02</internalNodes>
          <leafValues>
            5.3303241729736328e-01 -2.6486015319824219e-01</leafValues></_>
        <_>
          <internalNodes>
            0 -1 62 1.4168923720717430e-02</internalNodes>
          <leafValues>
            -1.6764757037162781e-01 7.5492972135543823e-01</leafValues></_></weakClassifiers></_>
    <!-- stage 13 -->
    <_>
      <maxWeakCount>9</maxWeakCount>
      <stageThreshold>-2.5873932242393494e-01</stageThreshold>
      <weakClassifiers>
        <_>
          <internalNodes>
            0 -1 6 2.4646598845720291e-02</internalNodes>
          <leafValues>
            -4.9397590756416321e-01 8.7564206123352051e-01</leafValues></_>
        <_>
          <internalNodes>
            0 -1 82 2.4004995822906494e-02</internalNodes>
          <leafValues>
            -2.7163276076316833e-01 7.7831727266311646e-01</leafValues></_>
        <_>
          <internalNodes>
            0 -1 91 -5.2966311573982239e-02</internalNodes>
          <leafValues>
            6.6787147521972656e-01 -3.4989619255065918e-01</leafValues></_>
        <_>
          <internalNodes>
            0 -1 54 -2.1301949163898826e-04</internalNodes>
          <leafValues>
            3.3581554889678955e-01 -6.3859957456588745e-01</leafValues></_>
        <_>
          <internalNodes>
            0 -1 63 3.0802158638834953e-02</internalNodes>
          <leafValues>
            -2.5257489085197449e-01 7.4262249469757080e-01</leafValues></_>
        <_>
          <internalNodes>
            0 -1 106 9.8374355584383011e-03</internalNodes>
          <leafValues>
            -2.7505305409431458e-01 5.5568045377731323e-01</leafValues></_>
        <_>
          <internalNodes>
            0 -1 115 2.5583656504750252e-02</internalNodes>
          <leafValues>
            -2.6845654845237732e-01 4.7488933801651001e-01</leafValues></_>
        <_>
          <internalNodes>
            0 -1 104 1.2227013707160950e-02</internalNodes>
          <leafValues>
            -1.7268842458724976e-01 8.3941847085952759e-01</leafValues></_>
        <_>
          <internalNodes>
            0 -1 109 -2.1554136765189469e-04</internalNodes>
          <leafValues>
            3.5117414593696594e-01 -3.6058959364891052e-01</leafValues></_></weakClassifiers></_>
    <!-- stage 14 -->
    <_>
      <maxWeakCount>8</maxWeakCount>
      <stageThreshold>6.6615007817745209e-02</stageThreshold>
      <weakClassifiers>
        <_>
          <internalNodes>
            0 -1 32 2.9532700777053833e-01</internalNodes>
          <leafValues>
            8.7299251556396484e-01 -8.9638155698776245e-01</leafValues></_>
        <_>
          <internalNodes>
            0 -1 23 3.6186330020427704e-02</internalNodes>
          <leafValues>
            1.9690727815032005e-02 9.1919118165969849e-01</leafValues></_>
        <_>
          <internalNodes>
            0 -1 90 3.9078027009963989e-02</internalNodes>
          <leafValues>
            -2.2636801004409790e-01 8.1610846519470215e-01</leafValues></_>
        <_>
          <internalNodes>
            0 -1 65 -3.1261432915925980e-02</internalNodes>
          <leafValues>
            7.6894211769104004e-01 -2.4330164492130280e-01</leafValues></_>
        <_>
          <internalNodes>
            0 -1 92 5.1021553575992584e-02</internalNodes>
          <leafValues>
            -7.2090119123458862e-01 2.3575089871883392e-01</leafValues></_>
        <_>
          <internalNodes>
            0 -1 66 1.3350810855627060e-02</internalNodes>
          <leafValues>
            -2.4490641057491302e-01 7.2958683967590332e-01</leafValues></_>
        <_>
          <internalNodes>
            0 -1 87 1.9063027866650373e-04</internalNodes>
          <leafValues>
            -4.0114179253578186e-01 3.6212360858917236e-01</leafValues></_>
        <_>
          <internalNodes>
            0 -1 47 9.6758410334587097e-02</internalNodes>
          <leafValues>
            2.4728541076183319e-01 -5.7382249832153320e-01</leafValues></_></weakClassifiers></_>
    <!-- stage 15 -->
    <_>
      <maxWeakCount>11</maxWeakCount>
      <stageThreshold>-3.6203098297119141e-01</stageThreshold>
      <weakClassifiers>
        <_>
          <internalNodes>
            0 -1 24 4.1683283448219299e-01</internalNodes>
          <leafValues>
            8.8605642318725586e-01 -1.6355317831039429e-01</leafValues></_>
        <_>
          <internalNodes>
            0 -1 80 -2.3587469011545181e-02</internalNodes>
          <leafValues>
            8.4836000204086304e-01 -3.5604380071163177e-02</leafValues></_>
        <_>
          <internalNodes>
            0 -1 103 -1.5696913003921509e-02</internalNodes>
          <leafValues>
            8.5112971067428589e-01 -1.8164741992950439e-01</leafValues></_>
        <_>
          <internalNodes>
            0 -1 67 -2.5624724105000496e-02</internalNodes>
          <leafValues>
            7.6562941074371338e-01 -2.0268850028514862e-01</leafValues></_>
        <_>
          <internalNodes>
            0 -1 120 2.6271518319845200e-02</internalNodes>
          <leafValues>
            -2.1130071580410004e-01 7.2284418344497681e-01</leafValues></_>
        <_>
          <internalNodes>
            0 -1 56 6.5362261375412345e-04</internalNodes>
          <leafValues>
            -5.7333219051361084e-01 2.7904835343360901e-01</leafValues></_>
        <_>
          <internalNodes>
            0 -1 128 -1.1248592287302017e-02</internalNodes>
          <leafValues>
            6.1633098125457764e-01 -2.3334413766860962e-01</leafValues></_>
        <_>
          <internalNodes>
            0 -1 86 1.9791781960520893e-04</internalNodes>
          <leafValues>
            -3.5168501734733582e-01 3.6436328291893005e-01</leafValues></_>
        <_>
          <internalNodes>
            0 -1 21 3.3601850271224976e-02</internalNodes>
          <leafValues>
            -1.4877076447010040e-01 7.6635766029357910e-01</leafValues></_>
        <_>
          <internalNodes>
            0 -1 21 -9.7433775663375854e-03</internalNodes>
          <leafValues>
            6.2869071960449219e-01 -2.2540795803070068e-01</leafValues></_>
        <_>
          <internalNodes>
            0 -1 75 -1.1008287221193314e-01</internalNodes>
          <leafValues>
            1.9964540004730225e-01 -6.9227719306945801e-01</leafValues></_></weakClassifiers></_>
    <!-- stage 16 -->
    <_>
      <maxWeakCount>14</maxWeakCount>
      <stageThreshold>-5.1811742782592773e-01</stageThreshold>
      <weakClassifiers>
        <_>
          <internalNodes>
            0 -1 28 4.0475651621818542e-02</internalNodes>
          <leafValues>
            -5.3788590431213379e-01 8.5868960618972778e-01</leafValues></_>
        <_>
          <internalNodes>
            0 -1 113 -7.4439058080315590e-03</internalNodes>
          <leafValues>
            8.0065399408340454e-01 -1.3436615467071533e-01</leafValues></_>
        <_>
          <internalNodes>
            0 -1 90 4.2121313512325287e-02</internalNodes>
          <leafValues>
            -2.1287813782691956e-01 7.6476168632507324e-01</leafValues></_>
        <_>
          <internalNodes>
            0 -1 4 3.9104416966438293e-02</internalNodes>
          <leafValues>
            -2.7583444118499756e-01 5.7117849588394165e-01</leafValues></_>
        <_>
          <internalNodes>
            0 -1 31 -2.9830932617187500e-02</internalNodes>
          <leafValues>
            5.2904319763183594e-01 -2.8964564204216003e-01</leafValues></_>
        <_>
          <internalNodes>
            0 -1 126 2.0084656716790050e-04</internalNodes>
          <leafValues>
            -5.6719636917114258e-01 2.9214781522750854e-01</leafValues></_>
        <_>
          <internalNodes>
            0 -1 18 -6.9141313433647156e-03</internalNodes>
          <leafValues>
            -8.2660484313964844e-01 1.1324859410524368e-01</leafValues></_>
        <_>
          <internalNodes>
            0 -1 108 -1.9073078874498606e-04</internalNodes>
          <leafValues>
            2.8002101182937622e-01 -4.2525491118431091e-01</leafValues></_>
        <_>
          <internalNodes>
            0 -1 68 -2.0868971943855286e-02</internalNodes>
          <leafValues>
            7.3662191629409790e-01 -1.7741310596466064e-01</leafValues></_>
        <_>
          <internalNodes>
            0 -1 42 1.0490089654922485e-01</internalNodes>
          <leafValues>
            1.7265637218952179e-01 -7.2657150030136108e-01</leafValues></_>
        <_>
          <internalNodes>
            0 -1 111 -2.6544805616140366e-02</internalNodes>
          <leafValues>
            -8.1774359941482544e-01 1.0928805172443390e-01</leafValues></_>
        <_>
          <internalNodes>
            0 -1 78 1.0651899874210358e-01</internalNodes>
          <leafValues>
            1.2785860896110535e-01 -7.1453016996383667e-01</leafValues></_>
        <_>
          <internalNodes>
            0 -1 41 7.1909494698047638e-02</internalNodes>
          <leafValues>
            1.8737532198429108e-01 -5.4373145103454590e-01</leafValues></_>
        <_>
          <internalNodes>
            0 -1 84 2.1497298032045364e-02</internalNodes>
          <leafValues>
            -3.1442686915397644e-01 3.6324238777160645e-01</leafValues></_></weakClassifiers></_>
    <!-- stage 17 -->
    <_>
      <maxWeakCount>13</maxWeakCount>
      <stageThreshold>-2.8668913245201111e-01</stageThreshold>
      <weakClassifiers>
        <_>
          <internalNodes>
            0 -1 10 -3.7014824151992798e-01</internalNodes>
          <leafValues>
            -3.5690897703170776e-01 8.6684936285018921e-01</leafValues></_>
        <_>
          <internalNodes>
            0 -1 69 2.0045217126607895e-02</internalNodes>
          <leafValues>
            -2.4979236721992493e-01 7.0826721191406250e-01</leafValues></_>
        <_>
          <internalNodes>
            0 -1 88 -4.1042886674404144e-02</internalNodes>
          <leafValues>
            7.8276848793029785e-01 -2.4318842589855194e-01</leafValues></_>
        <_>
          <internalNodes>
            0 -1 65 -2.3235544562339783e-02</internalNodes>
          <leafValues>
            5.4926013946533203e-01 -2.7694192528724670e-01</leafValues></_>
        <_>
          <internalNodes>
            0 -1 38 -5.0983406603336334e-02</internalNodes>
          <leafValues>
            6.8545883893966675e-01 -1.8614792823791504e-01</leafValues></_>
        <_>
          <internalNodes>
            0 -1 25 7.5976245105266571e-02</internalNodes>
          <leafValues>
            1.6915614902973175e-01 -6.5807318687438965e-01</leafValues></_>
        <_>
          <internalNodes>
            0 -1 27 -8.8470451533794403e-02</internalNodes>
          <leafValues>
            -6.7977535724639893e-01 1.5112434327602386e-01</leafValues></_>
        <_>
          <internalNodes>
            0 -1 67 1.6846790909767151e-02</internalNodes>
          <leafValues>
            -1.9668839871883392e-01 6.4716690778732300e-01</leafValues></_>
        <_>
          <internalNodes>
            0 -1 52 -1.9498009351082146e-04</internalNodes>
          <leafValues>
            3.4729704260826111e-01 -3.6466211080551147e-01</leafValues></_>
        <_>
          <internalNodes>
            0 -1 127 -1.8359668552875519e-02</internalNodes>
          <leafValues>
            6.4721041917800903e-01 -2.0860511064529419e-01</leafValues></_>
        <_>
          <internalNodes>
            0 -1 89 1.1630581691861153e-02</internalNodes>
          <leafValues>
            -2.5580522418022156e-01 4.4829395413398743e-01</leafValues></_>
        <_>
          <internalNodes>
            0 -1 11 1.8314340710639954e-01</internalNodes>
          <leafValues>
            -7.3030138015747070e-01 1.5615409612655640e-01</leafValues></_>
        <_>
          <internalNodes>
            0 -1 105 1.2258888222277164e-02</internalNodes>
          <leafValues>
            -1.7304678261280060e-01 7.6427131891250610e-01</leafValues></_></weakClassifiers></_>
    <!-- stage 18 -->
    <_>
      <maxWeakCount>13</maxWeakCount>
      <stageThreshold>-1.6679137945175171e-01</stageThreshold>
      <weakClassifiers>
        <_>
          <internalNodes>
            0 -1 60 1.9352426170371473e-04</internalNodes>
          <leafValues>
            1.9738782942295074e-01 8.9854967594146729e-01</leafValues></_>
        <_>
          <internalNodes>
            0 -1 100 7.4674445204436779e-03</internalNodes>
          <leafValues>
            -5.2945628762245178e-02 7.7392280101776123e-01</leafValues></_>
        <_>
          <internalNodes>
            0 -1 49 4.2625874280929565e-02</internalNodes>
          <leafValues>
            -2.5015002489089966e-01 6.1662685871124268e-01</leafValues></_>
        <_>
          <internalNodes>
            0 -1 16 -3.8751281797885895e-02</internalNodes>
          <leafValues>
            5.6791985034942627e-01 -2.8956934809684753e-01</leafValues></_>
        <_>
          <internalNodes>
            0 -1 33 3.7379391491413116e-02</internalNodes>
          <leafValues>
            2.2812971472740173e-01 -6.6224038600921631e-01</leafValues></_>
        <_>
          <internalNodes>
            0 -1 37 3.6848738789558411e-02</internalNodes>
          <leafValues>
            -3.0537882447242737e-01 4.9592199921607971e-01</leafValues></_>
        <_>
          <internalNodes>
            0 -1 20 8.9191943407058716e-02</internalNodes>
          <leafValues>
            1.9878694415092468e-01 -8.0182874202728271e-01</leafValues></_>
        <_>
          <internalNodes>
            0 -1 96 8.7553020566701889e-03</internalNodes>
          <leafValues>
            -2.4664156138896942e-01 5.9534966945648193e-01</leafValues></_>
        <_>
          <internalNodes>
            0 -1 46 4.6458363533020020e-02</internalNodes>
          <leafValues>
            -2.0940731465816498e-01 5.5833727121353149e-01</leafValues></_>
        <_>
          <internalNodes>
            0 -1 87 1.7749804828781635e-04</internalNodes>
          <leafValues>
            -4.7688594460487366e-01 2.3939044773578644e-01</leafValues></_>
        <_>
          <internalNodes>
            0 -1 90 5.1014885306358337e-02</internalNodes>
          <leafValues>
            -1.9016085565090179e-01 6.3856422901153564e-01</leafValues></_>
        <_>
          <internalNodes>
            0 -1 57 9.5252171158790588e-03</internalNodes>
          <leafValues>
            -2.0447790622711182e-01 5.6160044670104980e-01</leafValues></_>
        <_>
          <internalNodes>
            0 -1 12 -3.1060766428709030e-02</internalNodes>
          <leafValues>
            1.6020974516868591e-01 -7.9418820142745972e-01</leafValues></_></weakClassifiers></_>
    <!-- stage 19 -->
    <_>
      <maxWeakCount>14</maxWeakCount>
      <stageThreshold>-3.0185994505882263e-01</stageThreshold>
      <weakClassifiers>
        <_>
          <internalNodes>
            0 -1 61 4.4995360076427460e-03</internalNodes>
          <leafValues>
            8.7980014085769653e-01 5.6737586855888367e-03</leafValues></_>
        <_>
          <internalNodes>
            0 -1 79 -1.7151845619082451e-02</internalNodes>
          <leafValues>
            7.9931885004043579e-01 -3.3233176916837692e-02</leafValues></_>
        <_>
          <internalNodes>
            0 -1 99 -3.2699018716812134e-02</internalNodes>
          <leafValues>
            6.7803472280502319e-01 -2.2330105304718018e-01</leafValues></_>
        <_>
          <internalNodes>
            0 -1 40 2.7694931253790855e-02</internalNodes>
          <leafValues>
            -1.9267034530639648e-01 7.0350974798202515e-01</leafValues></_>
        <_>
          <internalNodes>
            0 -1 122 1.5557022765278816e-02</internalNodes>
          <leafValues>
            -4.3929082155227661e-01 2.6836007833480835e-01</leafValues></_>
        <_>
          <internalNodes>
            0 -1 76 1.9504093506839126e-04</internalNodes>
          <leafValues>
            -4.2037391662597656e-01 2.7114436030387878e-01</leafValues></_>
        <_>
          <internalNodes>
            0 -1 30 1.0920941829681396e-02</internalNodes>
          <leafValues>
            -4.4311565160751343e-01 2.7490392327308655e-01</leafValues></_>
        <_>
          <internalNodes>
            0 -1 58 5.0658773630857468e-02</internalNodes>
          <leafValues>
            1.5157786011695862e-01 -7.8020173311233521e-01</leafValues></_>
        <_>
          <internalNodes>
            0 -1 26 -8.1192702054977417e-02</internalNodes>
          <leafValues>
            -8.2485544681549072e-01 1.2366791069507599e-01</leafValues></_>
        <_>
          <internalNodes>
            0 -1 119 -2.0959594985470176e-04</internalNodes>
          <leafValues>
            2.1419113874435425e-01 -5.0799077749252319e-01</leafValues></_>
        <_>
          <internalNodes>
            0 -1 71 -9.5780439674854279e-02</internalNodes>
          <leafValues>
            -7.5031703710556030e-01 1.4770850539207458e-01</leafValues></_>
        <_>
          <internalNodes>
            0 -1 104 7.6145045459270477e-03</internalNodes>
          <leafValues>
            -2.3927110433578491e-01 5.7227158546447754e-01</leafValues></_>
        <_>
          <internalNodes>
            0 -1 73 2.3450005054473877e-01</internalNodes>
          <leafValues>
            -6.2060731649398804e-01 1.9638668000698090e-01</leafValues></_>
        <_>
          <internalNodes>
            0 -1 121 1.5573164820671082e-01</internalNodes>
          <leafValues>
            1.6643854975700378e-01 -6.2164360284805298e-01</leafValues></_></weakClassifiers></_></stages>
  <features>
    <_>
      <rects>
        <_>
          0 0 3 12 -1.</_>
        <_>
          0 6 3 6 2.</_></rects>
      <tilted>0</tilted></_>
    <_>
      <rects>
        <_>
          0 0 10 10 -1.</_>
        <_>
          0 0 5 5 2.</_>
        <_>
          5 5 5 5 2.</_></rects>
      <tilted>0</tilted></_>
    <_>
      <rects>
        <_>
          0 0 12 4 -1.</_>
        <_>
          6 0 6 4 2.</_></rects>
      <tilted>0</tilted></_>
    <_>
      <rects>
        <_>
          0 0 12 12 -1.</_>
        <_>
          0 0 6 6 2.</_>
        <_>
          6 6 6 6 2.</_></rects>
      <tilted>0</tilted></_>
    <_>
      <rects>
        <_>
          0 1 4 4 -1.</_>
        <_>
          0 1 2 2 2.</_>
        <_>
          2 3 2 2 2.</_></rects>
      <tilted>0</tilted></_>
    <_>
      <rects>
        <_>
          0 1 6 10 -1.</_>
        <_>
          3 1 3 10 2.</_></rects>
      <tilted>0</tilted></_>
    <_>
      <rects>
        <_>
          0 1 8 5 -1.</_>
        <_>
          4 1 4 5 2.</_></rects>
      <tilted>0</tilted></_>
    <_>
      <rects>
        <_>
          0 1 12 10 -1.</_>
        <_>
          4 1 4 10 3.</_></rects>
      <tilted>0</tilted></_>
    <_>
      <rects>
        <_>
          0 2 10 5 -1.</_>
        <_>
          5 2 5 5 2.</_></rects>
      <tilted>0</tilted></_>
    <_>
      <rects>
        <_>
          0 3 6 6 -1.</_>
        <_>
          2 3 2 6 3.</_></rects>
      <tilted>0</tilted></_>
    <_>
      <rects>
        <_>
          0 3 12 8 -1.</_>
        <_>
          0 7 12 4 2.</_></rects>
      <tilted>0</tilted></_>
    <_>
      <rects>
        <_>
          0 4 12 7 -1.</_>
        <_>
          4 4 4 7 3.</_></rects>
      <tilted>0</tilted></_>
    <_>
      <rects>
        <_>
          0 4 8 8 -1.</_>
        <_>
          0 8 8 4 2.</_></rects>
      <tilted>0</tilted></_>
    <_>
      <rects>
        <_>
          0 5 3 2 -1.</_>
        <_>
          1 5 1 2 3.</_></rects>
      <tilted>0</tilted></_>
    <_>
      <rects>
        <_>
          0 6 10 5 -1.</_>
        <_>
          5 6 5 5 2.</_></rects>
      <tilted>0</tilted></_>
    <_>
      <rects>
        <_>
          0 7 6 1 -1.</_>
        <_>
          2 7 2 1 3.</_></rects>
      <tilted>0</tilted></_>
    <_>
      <rects>
        <_>
          0 7 4 4 -1.</_>
        <_>
          0 7 2 2 2.</_>
        <_>
          2 9 2 2 2.</_></rects>
      <tilted>0</tilted></_>
    <_>
      <rects>
        <_>
          0 8 6 4 -1.</_>
        <_>
          0 8 3 2 2.</_>
        <_>
          3 10 3 2 2.</_></rects>
      <tilted>0</tilted></_>
    <_>
      <rects>
        <_>
          0 8 10 4 -1.</_>
        <_>
          5 8 5 4 2.</_></rects>
      <tilted>0</tilted></_>
    <_>
      <rects>
        <_>
          0 8 12 4 -1.</_>
        <_>
          6 8 6 4 2.</_></rects>
      <tilted>0</tilted></_>
    <_>
      <rects>
        <_>
          0 9 12 3 -1.</_>
        <_>
          6 9 6 3 2.</_></rects>
      <tilted>0</tilted></_>
    <_>
      <rects>
        <_>
          1 0 4 2 -1.</_>
        <_>
          1 0 2 1 2.</_>
        <_>
          3 1 2 1 2.</_></rects>
      <tilted>0</tilted></_>
    <_>
      <rects>
        <_>
          1 0 4 4 -1.</_>
        <_>
          1 0 2 2 2.</_>
        <_>
          3 2 2 2 2.</_></rects>
      <tilted>0</tilted></_>
    <_>
      <rects>
        <_>
          1 0 6 2 -1.</_>
        <_>
          1 0 3 1 2.</_>
        <_>
          4 1 3 1 2.</_></rects>
      <tilted>0</tilted></_>
    <_>
      <rects>
        <_>
          1 0 9 12 -1.</_>
        <_>
          4 0 3 12 3.</_></rects>
      <tilted>0</tilted></_>
    <_>
      <rects>
        <_>
          1 0 8 12 -1.</_>
        <_>
          1 0 4 6 2.</_>
        <_>
          5 6 4 6 2.</_></rects>
      <tilted>0</tilted></_>
    <_>
      <rects>
        <_>
          1 0 10 4 -1.</_>
        <_>
          6 0 5 4 2.</_></rects>
      <tilted>0</tilted></_>
    <_>
      <rects>
        <_>
          1 0 10 12 -1.</_>
        <_>
          1 0 5 6 2.</_>
        <_>
          6 6 5 6 2.</_></rects>
      <tilted>0</tilted></_>
    <_>
      <rects>
        <_>
          1 0 9 6 -1.</_>
        <_>
          1 3 9 3 2.</_></rects>
      <tilted>0</tilted></_>
    <_>
      <rects>
        <_>
          1 0 11 10 -1.</_>
        <_>
          1 5 11 5 2.</_></rects>
      <tilted>0</tilted></_>
    <_>
      <rects>
        <_>
          1 1 3 11 -1.</_>
        <_>
          2 1 1 11 3.</_></rects>
      <tilted>0</tilted></_>
    <_>
      <rects>
        <_>
          1 1 4 4 -1.</_>
        <_>
          1 1 2 2 2.</_>
        <_>
          3 3 2 2 2.</_></rects>
      <tilted>0</tilted></_>
    <_>
      <rects>
        <_>
          1 1 4 9 -1.</_>
        <_>
          1 4 4 3 3.</_></rects>
      <tilted>0</tilted></_>
    <_>
      <rects>
        <_>
          1 2 10 8 -1.</_>
        <_>
          1 2 5 4 2.</_>
        <_>
          6 6 5 4 2.</_></rects>
      <tilted>0</tilted></_>
    <_>
      <rects>
        <_>
          1 3 3 6 -1.</_>
        <_>
          2 3 1 6 3.</_></rects>
      <tilted>0</tilted></_>
    <_>
      <rects>
        <_>
          1 6 4 4 -1.</_>
        <_>
          1 6 2 2 2.</_>
        <_>
          3 8 2 2 2.</_></rects>
      <tilted>0</tilted></_>
    <_>
      <rects>
        <_>
          1 6 10 6 -1.</_>
        <_>
          1 9 10 3 2.</_></rects>
      <tilted>0</tilted></_>
    <_>
      <rects>
        <_>
          1 7 4 4 -1.</_>
        <_>
          1 7 2 2 2.</_>
        <_>
          3 9 2 2 2.</_></rects>
      <tilted>0</tilted></_>
    <_>
      <rects>
        <_>
          1 10 6 2 -1.</_>
        <_>
          1 10 3 1 2.</_>
        <_>
          4 11 3 1 2.</_></rects>
      <tilted>0</tilted></_>
    <_>
      <rects>
        <_>
          2 0 1 12 -1.</_>
        <_>
          2 4 1 4 3.</_></rects>
      <tilted>0</tilted></_>
    <_>
      <rects>
        <_>
          2 0 4 2 -1.</_>
        <_>
          2 0 2 1 2.</_>
        <_>
          4 1 2 1 2.</_></rects>
      <tilted>0</tilted></_>
    <_>
      <rects>
        <_>
          2 0 6 5 -1.</_>
        <_>
          5 0 3 5 2.</_></rects>
      <tilted>0</tilted></_>
    <_>
      <rects>
        <_>
          2 0 10 12 -1.</_>
        <_>
          2 0 5 6 2.</_>
        <_>
          7 6 5 6 2.</_></rects>
      <tilted>0</tilted></_>
    <_>
      <rects>
        <_>
          2 0 8 12 -1.</_>
        <_>
          2 4 8 4 3.</_></rects>
      <tilted>0</tilted></_>
    <_>
      <rects>
        <_>
          2 1 4 4 -1.</_>
        <_>
          2 1 2 2 2.</_>
        <_>
          4 3 2 2 2.</_></rects>
      <tilted>0</tilted></_>
    <_>
      <rects>
        <_>
          2 1 10 3 -1.</_>
        <_>
          7 1 5 3 2.</_></rects>
      <tilted>0</tilted></_>
    <_>
      <rects>
        <_>
          2 2 3 7 -1.</_>
        <_>
          3 2 1 7 3.</_></rects>
      <tilted>0</tilted></_>
    <_>
      <rects>
        <_>
          2 2 6 8 -1.</_>
        <_>
          5 2 3 8 2.</_></rects>
      <tilted>0</tilted></_>
    <_>
      <rects>
        <_>
          2 2 10 10 -1.</_>
        <_>
          2 2 5 5 2.</_>
        <_>
          7 7 5 5 2.</_></rects>
      <tilted>0</tilted></_>
    <_>
      <rects>
        <_>
          2 2 8 3 -1.</_>
        <_>
          2 3 8 1 3.</_></rects>
      <tilted>0</tilted></_>
    <_>
      <rects>
        <_>
          2 3 4 2 -1.</_>
        <_>
          2 3 2 1 2.</_>
        <_>
          4 4 2 1 2.</_></rects>
      <tilted>0</tilted></_>
    <_>
      <rects>
        <_>
          2 4 3 3 -1.</_>
        <_>
          3 4 1 3 3.</_></rects>
      <tilted>0</tilted></_>
    <_>
      <rects>
        <_>
          2 6 1 2 -1.</_>
        <_>
          2 7 1 1 2.</_></rects>
      <tilted>0</tilted></_>
    <_>
      <rects>
        <_>
          2 6 10 5 -1.</_>
        <_>
          7 6 5 5 2.</_></rects>
      <tilted>0</tilted></_>
    <_>
      <rects>
        <_>
          2 7 1 2 -1.</_>
        <_>
          2 8 1 1 2.</_></rects>
      <tilted>0</tilted></_>
    <_>
      <rects>
        <_>
          2 7 4 1 -1.</_>
        <_>
          4 7 2 1 2.</_></rects>
      <tilted>0</tilted></_>
    <_>
      <rects>
        <_>
          2 8 2 1 -1.</_>
        <_>
          3 8 1 1 2.</_></rects>
      <tilted>0</tilted></_>
    <_>
      <rects>
        <_>
          2 10 4 2 -1.</_>
        <_>
          2 10 2 1 2.</_>
        <_>
          4 11 2 1 2.</_></rects>
      <tilted>0</tilted></_>
    <_>
      <rects>
        <_>
          3 0 6 4 -1.</_>
        <_>
          6 0 3 4 2.</_></rects>
      <tilted>0</tilted></_>
    <_>
      <rects>
        <_>
          3 1 6 3 -1.</_>
        <_>
          3 2 6 1 3.</_></rects>
      <tilted>0</tilted></_>
    <_>
      <rects>
        <_>
          3 2 2 1 -1.</_>
        <_>
          4 2 1 1 2.</_></rects>
      <tilted>0</tilted></_>
    <_>
      <rects>
        <_>
          3 3 2 1 -1.</_>
        <_>
          4 3 1 1 2.</_></rects>
      <tilted>0</tilted></_>
    <_>
      <rects>
        <_>
          3 3 2 4 -1.</_>
        <_>
          3 3 1 2 2.</_>
        <_>
          4 5 1 2 2.</_></rects>
      <tilted>0</tilted></_>
    <_>
      <rects>
        <_>
          3 3 4 4 -1.</_>
        <_>
          3 3 2 2 2.</_>
        <_>
          5 5 2 2 2.</_></rects>
      <tilted>0</tilted></_>
    <_>
      <rects>
        <_>
          3 4 2 1 -1.</_>
        <_>
          4 4 1 1 2.</_></rects>
      <tilted>0</tilted></_>
    <_>
      <rects>
        <_>
          3 4 3 4 -1.</_>
        <_>
          4 4 1 4 3.</_></rects>
      <tilted>0</tilted></_>
    <_>
      <rects>
        <_>
          3 5 3 1 -1.</_>
        <_>
          4 5 1 1 3.</_></rects>
      <tilted>0</tilted></_>
    <_>
      <rects>
        <_>
          3 5 3 2 -1.</_>
        <_>
          4 5 1 2 3.</_></rects>
      <tilted>0</tilted></_>
    <_>
      <rects>
        <_>
          3 6 3 1 -1.</_>
        <_>
          4 6 1 1 3.</_></rects>
      <tilted>0</tilted></_>
    <_>
      <rects>
        <_>
          3 8 6 3 -1.</_>
        <_>
          3 9 6 1 3.</_></rects>
      <tilted>0</tilted></_>
    <_>
      <rects>
        <_>
          3 11 2 1 -1.</_>
        <_>
          4 11 1 1 2.</_></rects>
      <tilted>0</tilted></_>
    <_>
      <rects>
        <_>
          4 0 8 12 -1.</_>
        <_>
          4 0 4 6 2.</_>
        <_>
          8 6 4 6 2.</_></rects>
      <tilted>0</tilted></_>
    <_>
      <rects>
        <_>
          4 0 8 12 -1.</_>
        <_>
          8 0 4 12 2.</_></rects>
      <tilted>0</tilted></_>
    <_>
      <rects>
        <_>
          4 0 7 12 -1.</_>
        <_>
          4 4 7 4 3.</_></rects>
      <tilted>0</tilted></_>
    <_>
      <rects>
        <_>
          4 0 8 12 -1.</_>
        <_>
          4 4 8 4 3.</_></rects>
      <tilted>0</tilted></_>
    <_>
      <rects>
        <_>
          4 1 8 8 -1.</_>
        <_>
          8 1 4 8 2.</_></rects>
      <tilted>0</tilted></_>
    <_>
      <rects>
        <_>
          4 2 2 1 -1.</_>
        <_>
          5 2 1 1 2.</_></rects>
      <tilted>0</tilted></_>
    <_>
      <rects>
        <_>
          4 2 4 3 -1.</_>
        <_>
          4 3 4 1 3.</_></rects>
      <tilted>0</tilted></_>
    <_>
      <rects>
        <_>
          4 2 7 8 -1.</_>
        <_>
          4 6 7 4 2.</_></rects>
      <tilted>0</tilted></_>
    <_>
      <rects>
        <_>
          4 3 4 2 -1.</_>
        <_>
          4 4 4 1 2.</_></rects>
      <tilted>0</tilted></_>
    <_>
      <rects>
        <_>
          4 3 4 3 -1.</_>
        <_>
          4 4 4 1 3.</_></rects>
      <tilted>0</tilted></_>
    <_>
      <rects>
        <_>
          4 6 1 4 -1.</_>
        <_>
          4 8 1 2 2.</_></rects>
      <tilted>0</tilted></_>
    <_>
      <rects>
        <_>
          4 6 1 6 -1.</_>
        <_>
          4 8 1 2 3.</_></rects>
      <tilted>0</tilted></_>
    <_>
      <rects>
        <_>
          4 6 4 3 -1.</_>
        <_>
          4 7 4 1 3.</_></rects>
      <tilted>0</tilted></_>
    <_>
      <rects>
        <_>
          4 7 4 3 -1.</_>
        <_>
          4 8 4 1 3.</_></rects>
      <tilted>0</tilted></_>
    <_>
      <rects>
        <_>
          4 7 5 2 -1.</_>
        <_>
          4 8 5 1 2.</_></rects>
      <tilted>0</tilted></_>
    <_>
      <rects>
        <_>
          4 8 2 1 -1.</_>
        <_>
          5 8 1 1 2.</_></rects>
      <tilted>0</tilted></_>
    <_>
      <rects>
        <_>
          4 9 2 1 -1.</_>
        <_>
          5 9 1 1 2.</_></rects>
      <tilted>0</tilted></_>
    <_>
      <rects>
        <_>
          5 0 6 2 -1.</_>
        <_>
          5 0 3 1 2.</_>
        <_>
          8 1 3 1 2.</_></rects>
      <tilted>0</tilted></_>
    <_>
      <rects>
        <_>
          5 5 3 3 -1.</_>
        <_>
          5 6 3 1 3.</_></rects>
      <tilted>0</tilted></_>
    <_>
      <rects>
        <_>
          5 10 6 2 -1.</_>
        <_>
          5 10 3 1 2.</_>
        <_>
          8 11 3 1 2.</_></rects>
      <tilted>0</tilted></_>
    <_>
      <rects>
        <_>
          6 0 6 4 -1.</_>
        <_>
          6 0 3 2 2.</_>
        <_>
          9 2 3 2 2.</_></rects>
      <tilted>0</tilted></_>
    <_>
      <rects>
        <_>
          6 0 5 6 -1.</_>
        <_>
          6 3 5 3 2.</_></rects>
      <tilted>0</tilted></_>
    <_>
      <rects>
        <_>
          6 1 6 10 -1.</_>
        <_>
          9 1 3 10 2.</_></rects>
      <tilted>0</tilted></_>
    <_>
      <rects>
        <_>
          6 2 2 1 -1.</_>
        <_>
          7 2 1 1 2.</_></rects>
      <tilted>0</tilted></_>
    <_>
      <rects>
        <_>
          6 2 6 4 -1.</_>
        <_>
          9 2 3 4 2.</_></rects>
      <tilted>0</tilted></_>
    <_>
      <rects>
        <_>
          6 3 1 3 -1.</_>
        <_>
          6 4 1 1 3.</_></rects>
      <tilted>0</tilted></_>
    <_>
      <rects>
        <_>
          6 3 3 5 -1.</_>
        <_>
          7 3 1 5 3.</_></rects>
      <tilted>0</tilted></_>
    <_>
      <rects>
        <_>
          6 3 6 6 -1.</_>
        <_>
          8 3 2 6 3.</_></rects>
      <tilted>0</tilted></_>
    <_>
      <rects>
        <_>
          6 4 3 4 -1.</_>
        <_>
          7 4 1 4 3.</_></rects>
      <tilted>0</tilted></_>
    <_>
      <rects>
        <_>
          6 4 4 1 -1.</_>
        <_>
          8 4 2 1 2.</_></rects>
      <tilted>0</tilted></_>
    <_>
      <rects>
        <_>
          6 4 6 1 -1.</_>
        <_>
          8 4 2 1 3.</_></rects>
      <tilted>0</tilted></_>
    <_>
      <rects>
        <_>
          6 4 6 3 -1.</_>
        <_>
          8 4 2 3 3.</_></rects>
      <tilted>0</tilted></_>
    <_>
      <rects>
        <_>
          6 5 3 1 -1.</_>
        <_>
          7 5 1 1 3.</_></rects>
      <tilted>0</tilted></_>
    <_>
      <rects>
        <_>
          6 6 3 1 -1.</_>
        <_>
          7 6 1 1 3.</_></rects>
      <tilted>0</tilted></_>
    <_>
      <rects>
        <_>
          6 6 1 3 -1.</_>
        <_>
          6 7 1 1 3.</_></rects>
      <tilted>0</tilted></_>
    <_>
      <rects>
        <_>
          6 7 1 3 -1.</_>
        <_>
          6 8 1 1 3.</_></rects>
      <tilted>0</tilted></_>
    <_>
      <rects>
        <_>
          6 7 4 4 -1.</_>
        <_>
          6 7 2 2 2.</_>
        <_>
          8 9 2 2 2.</_></rects>
      <tilted>0</tilted></_>
    <_>
      <rects>
        <_>
          6 9 2 1 -1.</_>
        <_>
          7 9 1 1 2.</_></rects>
      <tilted>0</tilted></_>
    <_>
      <rects>
        <_>
          7 0 2 1 -1.</_>
        <_>
          8 0 1 1 2.</_></rects>
      <tilted>0</tilted></_>
    <_>
      <rects>
        <_>
          7 0 2 6 -1.</_>
        <_>
          7 2 2 2 3.</_></rects>
      <tilted>0</tilted></_>
    <_>
      <rects>
        <_>
          7 0 5 10 -1.</_>
        <_>
          7 5 5 5 2.</_></rects>
      <tilted>0</tilted></_>
    <_>
      <rects>
        <_>
          7 1 4 4 -1.</_>
        <_>
          7 1 2 2 2.</_>
        <_>
          9 3 2 2 2.</_></rects>
      <tilted>0</tilted></_>
    <_>
      <rects>
        <_>
          7 2 1 4 -1.</_>
        <_>
          7 4 1 2 2.</_></rects>
      <tilted>0</tilted></_>
    <_>
      <rects>
        <_>
          7 2 4 4 -1.</_>
        <_>
          7 2 2 2 2.</_>
        <_>
          9 4 2 2 2.</_></rects>
      <tilted>0</tilted></_>
    <_>
      <rects>
        <_>
          7 3 3 5 -1.</_>
        <_>
          8 3 1 5 3.</_></rects>
      <tilted>0</tilted></_>
    <_>
      <rects>
        <_>
          7 4 2 4 -1.</_>
        <_>
          8 4 1 4 2.</_></rects>
      <tilted>0</tilted></_>
    <_>
      <rects>
        <_>
          7 6 4 4 -1.</_>
        <_>
          7 6 2 2 2.</_>
        <_>
          9 8 2 2 2.</_></rects>
      <tilted>0</tilted></_>
    <_>
      <rects>
        <_>
          7 8 2 1 -1.</_>
        <_>
          8 8 1 1 2.</_></rects>
      <tilted>0</tilted></_>
    <_>
      <rects>
        <_>
          7 9 2 1 -1.</_>
        <_>
          8 9 1 1 2.</_></rects>
      <tilted>0</tilted></_>
    <_>
      <rects>
        <_>
          7 10 4 2 -1.</_>
        <_>
          7 10 2 1 2.</_>
        <_>
          9 11 2 1 2.</_></rects>
      <tilted>0</tilted></_>
    <_>
      <rects>
        <_>
          8 0 4 6 -1.</_>
        <_>
          8 3 4 3 2.</_></rects>
      <tilted>0</tilted></_>
    <_>
      <rects>
        <_>
          8 2 3 10 -1.</_>
        <_>
          9 2 1 10 3.</_></rects>
      <tilted>0</tilted></_>
    <_>
      <rects>
        <_>
          8 6 2 4 -1.</_>
        <_>
          8 6 1 2 2.</_>
        <_>
          9 8 1 2 2.</_></rects>
      <tilted>0</tilted></_>
    <_>
      <rects>
        <_>
          8 7 4 4 -1.</_>
        <_>
          8 7 2 2 2.</_>
        <_>
          10 9 2 2 2.</_></rects>
      <tilted>0</tilted></_>
    <_>
      <rects>
        <_>
          9 0 1 12 -1.</_>
        <_>
          9 4 1 4 3.</_></rects>
      <tilted>0</tilted></_>
    <_>
      <rects>
        <_>
          9 3 1 2 -1.</_>
        <_>
          9 4 1 1 2.</_></rects>
      <tilted>0</tilted></_>
    <_>
      <rects>
        <_>
          10 5 2 1 -1.</_>
        <_>
          11 5 1 1 2.</_></rects>
      <tilted>0</tilted></_>
    <_>
      <rects>
        <_>
          10 7 2 4 -1.</_>
        <_>
          10 7 1 2 2.</_>
        <_>
          11 9 1 2 2.</_></rects>
      <tilted>0</tilted></_></features></cascade>
</opencv_storage>
