<?xml version="1.0"?>
<opencv_storage>
<cascade>
  <stageType>BOOST</stageType>
  <featureType>HAAR</featureType>
  <height>12</height>
  <width>12</width>
  <stageParams>
    <boostType>GAB</boostType>
    <minHitRate>9.9500000476837158e-01</minHitRate>
    <maxFalseAlarm>5.0000000000000000e-01</maxFalseAlarm>
    <weightTrimRate>9.4999998807907104e-01</weightTrimRate>
    <maxDepth>1</maxDepth>
    <maxWeakCount>100</maxWeakCount></stageParams>
  <featureParams>
    <maxCatCount>0</maxCatCount>
    <featSize>1</featSize>
    <mode>BASIC</mode></featureParams>
  <stageNum>10</stageNum>
  <stages>
    <!-- stage 0 -->
    <_>
      <maxWeakCount>1</maxWeakCount>
      <stageThreshold>9.8603826761245728e-01</stageThreshold>
      <weakClassifiers>
        <_>
          <internalNodes>
            0 -1 15 -2.0002221688628197e-02</internalNodes>
          <leafValues>
            9.8603826761245728e-01 -1.</leafValues></_></weakClassifiers></_>
    <!-- stage 1 -->
    <_>
      <maxWeakCount>1</maxWeakCount>
      <stageThreshold>9.8773008584976196e-01</stageThreshold>
      <weakClassifiers>
        <_>
          <internalNodes>
            0 -1 8 1.4961576089262962e-02</internalNodes>
          <leafValues>
            -9.2460733652114868e-01 9.8773008584976196e-01</leafValues></_></weakClassifiers></_>
    <!-- stage 2 -->
    <_>
      <maxWeakCount>1</maxWeakCount>
      <stageThreshold>9.7246915102005005e-01</stageThreshold>
      <weakClassifiers>
        <_>
          <internalNodes>
            0 -1 2 3.2954636216163635e-01</internalNodes>
          <leafValues>
            -9.7341388463973999e-01 9.7246915102005005e-01</leafValues></_></weakClassifiers></_>
    <!-- stage 3 -->
    <_>
      <maxWeakCount>2</maxWeakCount>
      <stageThreshold>1.4237430691719055e-01</stageThreshold>
      <weakClassifiers>
        <_>
          <internalNodes>
            0 -1 9 -1.6472149640321732e-02</internalNodes>
          <leafValues>
            9.7376775741577148e-01 -7.7741932868957520e-01</leafValues></_>
        <_>
          <internalNodes>
            0 -1 0 8.1458896398544312e-02</internalNodes>
          <leafValues>
            -9.6727401018142700e-01 9.1979366540908813e-01</leafValues></_></weakClassifiers></_>
    <!-- stage 4 -->
    <_>
      <maxWeakCount>2</maxWeakCount>
      <stageThreshold>8.8776946067810059e-02</stageThreshold>
      <weakClassifiers>
        <_>
          <internalNodes>
            0 -1 12 -1.0589070618152618e-02</internalNodes>
          <leafValues>
            9.7911858558654785e-01 -8.3306753635406494e-01</leafValues></_>
        <_>
          <internalNodes>
            0 -1 16 -1.0834907181560993e-02</internalNodes>
          <leafValues>
            9.2184448242187500e-01 -9.2314958572387695e-01</leafValues></_></weakClassifiers></_>
    <!-- stage 5 -->
    <_>
      <maxWeakCount>2</maxWeakCount>
      <stageThreshold>7.7160015702247620e-02</stageThreshold>
      <weakClassifiers>
        <_>
          <internalNodes>
            0 -1 12 -9.3751940876245499e-03</internalNodes>
          <leafValues>
            9.8385077714920044e-01 -8.4512132406234741e-01</leafValues></_>
        <_>
          <internalNodes>
            0 -1 7 -1.9374135881662369e-02</internalNodes>
          <leafValues>
            9.2228132486343384e-01 -8.6736887693405151e-01</leafValues></_></weakClassifiers></_>
    <!-- stage 6 -->
    <_>
      <maxWeakCount>1</maxWeakCount>
      <stageThreshold>9.4706559181213379e-01</stageThreshold>
      <weakClassifiers>
        <_>
          <internalNodes>
            0 -1 14 -2.9538670554757118e-02</internalNodes>
          <leafValues>
            9.4706559181213379e-01 -8.6928105354309082e-01</leafValues></_></weakClassifiers></_>
    <!-- stage 7 -->
    <_>
      <maxWeakCount>2</maxWeakCount>
      <stageThreshold>2.3621685802936554e-01</stageThreshold>
      <weakClassifiers>
        <_>
          <internalNodes>
            0 -1 11 7.9642415046691895e-02</internalNodes>
          <leafValues>
            -6.0592752695083618e-01 9.5946252346038818e-01</leafValues></_>
        <_>
          <internalNodes>
            0 -1 6 -3.7510652095079422e-02</internalNodes>
          <leafValues>
            8.4214442968368530e-01 -8.9063274860382080e-01</leafValues></_></weakClassifiers></_>
    <!-- stage 8 -->
    <_>
      <maxWeakCount>2</maxWeakCount>
      <stageThreshold>2.5894713401794434e-01</stageThreshold>
      <weakClassifiers>
        <_>
          <internalNodes>
            0 -1 11 8.1364810466766357e-02</internalNodes>
          <leafValues>
            -6.2828063964843750e-01 9.6370375156402588e-01</leafValues></_>
        <_>
          <internalNodes>
            0 -1 3 1.6905218362808228e-01</internalNodes>
          <leafValues>
            -4.3143543601036072e-01 8.8722777366638184e-01</leafValues></_></weakClassifiers></_>
    <!-- stage 9 -->
    <_>
      <maxWeakCount>5</maxWeakCount>
      <stageThreshold>-4.3492513895034790e-01</stageThreshold>
      <weakClassifiers>
        <_>
          <internalNodes>
            0 -1 5 7.2333484888076782e-02</internalNodes>
          <leafValues>
            -7.3499608039855957e-01 9.3437647819519043e-01</leafValues></_>
        <_>
          <internalNodes>
            0 -1 10 -1.1150790005922318e-01</internalNodes>
          <leafValues>
            9.0508866310119629e-01 -5.1125741004943848e-01</leafValues></_>
        <_>
          <internalNodes>
            0 -1 13 1.0050375759601593e-01</internalNodes>
          <leafValues>
            -6.8375283479690552e-01 6.6678208112716675e-01</leafValues></_>
        <_>
          <internalNodes>
            0 -1 1 8.0660782754421234e-02</internalNodes>
          <leafValues>
            3.9729025959968567e-01 -8.7489604949951172e-01</leafValues></_>
        <_>
          <internalNodes>
            0 -1 4 8.2613617181777954e-02</internalNodes>
          <leafValues>
            -7.1574139595031738e-01 4.1259670257568359e-01</leafValues></_></weakClassifiers></_></stages>
  <features>
    <_>
      <rects>
        <_>
          0 0 4 11 -1.</_>
        <_>
          2 0 2 11 2.</_></rects>
      <tilted>0</tilted></_>
    <_>
      <rects>
        <_>
          0 0 10 12 -1.</_>
        <_>
          0 0 5 6 2.</_>
        <_>
          5 6 5 6 2.</_></rects>
      <tilted>0</tilted></_>
    <_>
      <rects>
        <_>
          0 0 12 12 -1.</_>
        <_>
          0 4 12 4 3.</_></rects>
      <tilted>0</tilted></_>
    <_>
      <rects>
        <_>
          0 3 6 6 -1.</_>
        <_>
          2 3 2 6 3.</_></rects>
      <tilted>0</tilted></_>
    <_>
      <rects>
        <_>
          1 0 3 9 -1.</_>
        <_>
          1 3 3 3 3.</_></rects>
      <tilted>0</tilted></_>
    <_>
      <rects>
        <_>
          1 0 9 4 -1.</_>
        <_>
          4 0 3 4 3.</_></rects>
      <tilted>0</tilted></_>
    <_>
      <rects>
        <_>
          1 8 4 4 -1.</_>
        <_>
          1 10 4 2 2.</_></rects>
      <tilted>0</tilted></_>
    <_>
      <rects>
        <_>
          2 2 4 4 -1.</_>
        <_>
          2 2 2 2 2.</_>
        <_>
          4 4 2 2 2.</_></rects>
      <tilted>0</tilted></_>
    <_>
      <rects>
        <_>
          2 6 4 4 -1.</_>
        <_>
          2 6 2 2 2.</_>
        <_>
          4 8 2 2 2.</_></rects>
      <tilted>0</tilted></_>
    <_>
      <rects>
        <_>
          3 3 5 6 -1.</_>
        <_>
          3 5 5 2 3.</_></rects>
      <tilted>0</tilted></_>
    <_>
      <rects>
        <_>
          3 3 6 6 -1.</_>
        <_>
          3 5 6 2 3.</_></rects>
      <tilted>0</tilted></_>
    <_>
      <rects>
        <_>
          4 0 4 6 -1.</_>
        <_>
          4 2 4 2 3.</_></rects>
      <tilted>0</tilted></_>
    <_>
      <rects>
        <_>
          5 3 2 6 -1.</_>
        <_>
          5 5 2 2 3.</_></rects>
      <tilted>0</tilted></_>
    <_>
      <rects>
        <_>
          6 4 6 3 -1.</_>
        <_>
          8 4 2 3 3.</_></rects>
      <tilted>0</tilted></_>
    <_>
      <rects>
        <_>
          6 5 4 6 -1.</_>
        <_>
          6 5 2 3 2.</_>
        <_>
          8 8 2 3 2.</_></rects>
      <tilted>0</tilted></_>
    <_>
      <rects>
        <_>
          8 1 4 4 -1.</_>
        <_>
          10 1 2 4 2.</_></rects>
      <tilted>0</tilted></_>
    <_>
      <rects>
        <_>
          9 6 2 6 -1.</_>
        <_>
          10 6 1 6 2.</_></rects>
      <tilted>0</tilted></_></features></cascade>
</opencv_storage>
